tree
version=v4
num_class=1
num_tree_per_iteration=1
label_index=0
max_feature_idx=109
objective=mape
feature_names=TableScan_Scan_const TableScan_Scan_in_card TableScan_Scan_in_size TableScan_Scan_out_percentage TableScan_Scan_like_percentage TableScan_Scan_compare_percentage TableScan_Scan_in_expression_percentage TableScan_Scan_between_percentage TableScan_Scan_or_exp_percentage TableScan_Scan_starts_with_percentage TableScan_Scan_empty_output InlineTable_Scan_const InlineTable_Scan_in_card InlineTable_Scan_in_size InlineTable_Scan_out_percentage PipelineBreakerScan_Scan_const PipelineBreakerScan_Scan_in_card PipelineBreakerScan_Scan_in_size PipelineBreakerScan_Scan_out_percentage Temp_Build_const Temp_Build_out_card Temp_Build_out_size Temp_Build_in_percentage EarlyExecution_Scan_const EarlyExecution_Scan_out_percentage Select_PassThrough_const Select_PassThrough_in_percentage Select_PassThrough_out_percentage Map_PassThrough_const Map_PassThrough_in_percentage Map_PassThrough_out_percentage MultiWayJoin_Build_const MultiWayJoin_Build_out_card MultiWayJoin_Build_out_size MultiWayJoin_Build_in_percentage MultiWayJoin_Scan_const MultiWayJoin_Scan_in_card MultiWayJoin_Scan_in_size MultiWayJoin_Scan_out_percentage HashJoin_Build_const HashJoin_Build_out_card HashJoin_Build_out_size HashJoin_Build_in_percentage HashJoin_Probe_const HashJoin_Probe_in_card HashJoin_Probe_right_percentage HashJoin_Probe_out_percentage IndexNLJoin_Probe_const IndexNLJoin_Probe_in_percentage IndexNLJoin_Probe_right_card IndexNLJoin_Probe_out_percentage GroupJoin_Build_const GroupJoin_Build_out_card GroupJoin_Build_out_size GroupJoin_Build_in_percentage GroupJoin_Probe_const GroupJoin_Probe_out_card GroupJoin_Probe_out_size GroupJoin_Probe_right_percentage GroupJoin_Probe_out_percentage GroupJoin_Scan_const GroupJoin_Scan_in_card GroupJoin_Scan_in_size GroupJoin_Scan_out_percentage GroupBy_Build_const GroupBy_Build_out_card GroupBy_Build_out_size GroupBy_Build_in_percentage GroupBy_Scan_const GroupBy_Scan_out_card GroupBy_Scan_out_size GroupBy_Scan_out_percentage Sort_Build_const Sort_Build_out_card Sort_Build_out_size Sort_Build_in_percentage Sort_Build_out_percentage Sort_Scan_const Sort_Scan_in_card Sort_Scan_in_size Sort_Scan_out_percentage SetOperation_Build_const SetOperation_Build_out_card SetOperation_Build_out_size SetOperation_Build_in_percentage SetOperation_Scan_const SetOperation_Scan_in_card SetOperation_Scan_in_size SetOperation_Scan_out_percentage SetOperation_PassThrough_const Window_Build_const Window_Build_out_card Window_Build_out_size Window_Build_in_percentage Window_Scan_const Window_Scan_in_card Window_Scan_in_size Window_Scan_out_percentage FileOutput_Build_const FileOutput_Build_out_card FileOutput_Build_out_size FileOutput_Build_in_percentage CsvWriter_Build_const CsvWriter_Build_out_card CsvWriter_Build_out_size CsvWriter_Build_in_percentage AssertSingle_PassThrough_const AssertSingle_PassThrough_in_percentage EarlyProbe_PassThrough_const EarlyProbe_PassThrough_out_percentage
feature_infos=[0:1] [0:600037902] none [0:1] [0:3.9950000000000001] [-1:5.9700000000000006] [0:4.0099749999999998] [0:5] [0:3.8225540022670588] [0:1.2161955599182204] [0:1] [0:1] none none none [0:1] [0:3203600] [0:87.982421875] [0:1] [0:1] [0:3203600] [0:87.982421875] [0:1.0026041666666667] [0:1] [0:4] [0:1] [0:1] [0:1] [0:1] [0:1] [0:1] none none none none none none none none [0:1] [0:453919593] [0:258.27999999999997] [0:1256.7463641652123] [0:5] [0:451595000] [0:3352] [0:231151] none none none none none none none none none none none none none none none none none [0:1] [0:600037902] [0:176.82031249999994] [0:227800] [0:1] [0:600037902] [0:176.82031249999994] [0:1] [0:1] [0:521480511] [0:294.1728515625] [0:5637.4847283974486] [0:72.23506002087683] [0:1] [0:521480511] [0:294.9150390625] [0:1] none none none none none none none none none [0:1] [0:594828867] [0:159.12695312499997] [0:0.99999991665274768] [0:1] [0:594828867] [0:143.12695312499997] [0:1] none none none none none none none none none none [0:4] [0:4]
tree_sizes=2757 2954 2947 2972 2968 2967 2975 2973 2980 2971 2979 2983 3000 2981 2998 2983 3000 2997 3007 2992 2987 2996 2994 3014 3001 2999 3016 3003 3018 3023 3028 3006 3017 3015 3004 3012 3012 3027 3012 3012 3057 3012 2997 3040 3037 3007 3017 3027 3025 3028 3021 3029 3029 3034 3045 3038 3022 3024 3029 3027 3027 3015 3008 3021 3016 3022 3019 3041 2992 3002 2994 3049 3008 3010 2948 3026 2969 2987 3011 2993 2967 2964 2989 2970 3019 2986 2956 2970 2972 2951 2933 2985 3000 2955 2998 2944 2996 2955 2948 2974 2959 2977 2999 2966 2965 2950 2941 2939 2928 2968 2925 2937 2953 2933 2983 2915 2907 2988 2986 2962 2919 2952 2960 2914 2960 2972 2909 2914 2886 2899 2950 3000 2974 2932 2994 2966 2952 2950 2984 2977 2904 2899 2904 2965 2976 2969 2965 2887 2949 2965 2978 2944 2953 2939 2970 2953 2983 2978 2999 2952 2990 2934 2957 2920 2918 2925 2897 2950 2956 2950 2976 2963 2947 2917 2899 2963 2967 2918 2964 2968 2922 2969 2948 2972 2954 2970 2980 3002 2931 2945 2941 2930 2970 2919 2953 2937 2895 2922 2941 2930

Tree=0
num_leaves=31
num_cat=0
split_feature=1 69 93 25 78 65 46 42 1 40 42 76 74 76 65 1 65 44 1 1 108 40 69 69 1 17 67 1 27 41
split_gain=40.5509 6.9373 4.57368 3.44145 3.70979 2.02427 1.69845 1.40083 1.38977 1.15549 1.11526 0.66213 0.661362 0.596579 0.484139 1.50203 0.436442 0.380801 0.316989 0.300654 0.267245 0.225779 0.223979 0.740087 0.298723 0.251884 0.211599 0.18472 0.182875 0.174502
threshold=17804.000000000004 36148.500000000007 0.26854092349527259 1.0000000180025095e-35 364.50000000000006 404716.50000000006 1.9986887424033497 0.68050000000000022 4097.0000000000009 82545.000000000015 0.13335289115646262 0.46365037779737189 19.000000000000004 0.0002129476870174202 299.50000000000006 152500.00000000003 1.5000000000000002 82559.000000000015 912201.50000000012 8069.0000000000009 1.5000000000000002 377940.00000000006 1.5000000000000002 1.0000000180025095e-35 320.50000000000006 1.0000000180025095e-35 0.55091899278626322 38915.000000000007 0.44934481904959361 52.578125000000021
decision_type=2 2 2 2 2 2 2 2 2 2 2 2 2 2 2 2 2 2 2 2 2 2 2 2 2 2 2 2 2 2
left_child=1 3 5 4 8 6 7 11 22 27 16 14 -5 -3 -2 -16 19 20 -8 -10 29 -19 23 24 25 -1 -7 -9 -14 -11
right_child=2 13 -4 12 -6 26 18 9 10 17 -12 -13 28 -15 15 -17 -18 21 -20 -21 -22 -23 -24 -25 -26 -27 -28 -29 -30 -31
leaf_value=18.215673542022706 18.84033832550049 18.723909187316895 18.515875053405761 18.810779953002928 18.798792839050293 18.68310718536377 18.553697013854979 18.605420303344726 18.609557533264159 18.659367752075195 18.552681922912598 18.53794174194336 18.68647747039795 18.569485092163085 18.5881046295166 18.761377143859864 18.438222122192382 18.608472633361817 18.659533691406249 18.671857261657713 18.616880035400392 18.64810218811035 18.238571262359621 18.14776439666748 18.51133213043213 18.681264114379882 18.568521881103514 18.622730827331544 18.543000602722167 18.622217369079589
leaf_weight=3823 12096 954 611 482 1134 48 350 242 264 1126 642 94 63 95 344 1366 99 94 250 385 64 81 2174 2261 2352 46 362 303 155 49
leaf_count=3823 12096 954 611 482 1134 48 350 242 264 1126 642 94 63 95 344 1366 99 94 250 385 64 81 2174 2261 2352 46 362 303 155 49
internal_value=18.6277 18.6239 18.631 18.6233 18.6229 18.6313 18.6315 18.6317 18.6224 18.6292 18.6254 18.632 18.6301 18.6317 18.6321 18.6305 18.628 18.6307 18.6262 18.629 18.6313 18.6263 18.622 18.6223 18.6217 18.6212 18.6243 18.6252 18.6256 18.6316
internal_weight=0 14929 17480 13880 13180 16869 16459 15859 12046 1959 1390 13900 700 1049 13806 1710 748 1414 600 649 1239 175 10656 8482 6221 3869 410 545 218 1175
internal_count=32409 14929 17480 13880 13180 16869 16459 15859 12046 1959 1390 13900 700 1049 13806 1710 748 1414 600 649 1239 175 10656 8482 6221 3869 410 545 218 1175
is_linear=0
shrinkage=1


Tree=1
num_leaves=31
num_cat=0
split_feature=1 69 93 94 78 65 42 46 1 1 42 76 76 75 65 1 46 65 16 108 41 69 69 1 1 1 1 65 67 96
split_gain=37.7823 7.17452 4.25069 3.39978 3.69637 1.82833 1.96063 1.55763 1.27986 1.20039 1.10812 0.806939 0.732373 0.645618 0.623446 1.38283 0.613438 0.440242 0.28698 0.269128 0.243532 0.234607 0.816742 0.23479 0.227551 0.21058 0.187702 0.285929 0.184913 0.184313
threshold=15504.000000000002 24136.000000000004 0.13223057113543205 1.0000000180025095e-35 172.00000000000003 404716.50000000006 0.43812699417981948 4.0318544411389725 3354.0000000000005 78364.500000000015 0.079651947845444437 0.26108859580052496 0.00017581053565332542 0.34478789717817571 148.50000000000003 271098.50000000006 0.77890458630654413 4.5000000000000009 66564.000000000015 1.5000000000000002 36.042968750000007 1.0000000180025095e-35 1.5000000000000002 137.00000000000003 8069.0000000000009 352636.00000000006 57370.000000000007 21459.000000000004 0.55091899278626322 20.155273437500011
decision_type=2 2 2 2 2 2 2 2 2 2 2 2 2 2 2 2 2 2 2 2 2 2 2 2 2 2 2 2 2 2
left_child=1 3 5 4 8 6 7 11 18 -8 17 14 -3 -5 -2 26 19 24 21 20 -11 23 -23 -1 -10 -18 -16 -28 -7 -15
right_child=2 12 -4 13 -6 28 9 -9 10 16 -12 -13 -14 29 15 -17 25 -19 -20 -21 -22 22 -24 -25 -26 -27 27 -29 -30 -31
leaf_value=-0.38231974601745622 0.19551557540893541 0.07877389907836907 -0.094400234222412047 0.17336765289306655 0.13810701370239259 0.049858875274658133 -0.01620075225830071 -0.070758953094482283 -0.0061177635192869676 0.030917053222656324 -0.081848239898681646 -0.064672355651855543 -0.050823059082031108 0.017889366149902487 -0.072873725891113142 0.12441675186157219 -0.020173625946044993 -0.18834793090820307 0.066515426635742267 -0.0097455596923829556 0.0052286911010742902 -0.43194963455200192 -0.36332989692688006 -0.11207166671752944 0.036339626312256006 0.014295158386230612 0.025081024169922018 -0.029404430389404369 -0.053267898559570176 -0.089790287017822129
leaf_weight=3709 11747 1062 649 451 1159 48 636 375 458 1222 973 124 123 99 169 1420 162 119 32 85 216 2261 2040 1884 297 134 127 118 362 148
leaf_count=3709 11747 1062 649 451 1159 48 636 375 458 1222 973 124 123 99 169 1420 162 119 32 85 216 2261 2040 1884 297 134 127 118 362 148
internal_value=0 -0.00374178 0.00311222 -0.00439065 -0.00475757 0.00341642 0.00357998 0.00403468 -0.00528803 0.000972203 -0.00287094 0.00420866 0.00372158 0.00240738 0.00428198 0.00256724 0.00227972 -0.000286538 -0.00573779 0.00308931 0.0034125 -0.00576837 -0.00521308 -0.00619539 0.000604488 -0.00188584 -0.00251819 -0.000749736 -0.00318012 -0.00170223
internal_weight=0 14815 17594 13630 12932 16945 16535 14080 11773 2455 1847 13705 1185 698 13581 1834 1819 874 9926 1523 1438 9894 4301 5593 755 296 414 245 410 247
internal_count=32409 14815 17594 13630 12932 16945 16535 14080 11773 2455 1847 13705 1185 698 13581 1834 1819 874 9926 1523 1438 9894 4301 5593 755 296 414 245 410 247
is_linear=0
shrinkage=0.1


Tree=2
num_leaves=31
num_cat=0
split_feature=1 69 93 94 78 1 65 1 42 46 65 42 42 76 76 75 40 65 16 65 41 44 69 69 1 1 65 1 1 75
split_gain=35.8993 7.13734 3.71743 3.29022 3.54592 1.67201 1.89497 1.28942 1.25402 1.22407 1.19488 1.04668 0.986653 0.758148 0.659653 0.658815 0.467471 0.405062 0.330655 0.282146 0.278622 0.25227 0.249552 0.793674 0.271087 0.233693 0.217132 0.38256 0.20674 0.206324
threshold=15504.000000000002 15878.000000000002 0.1084565218081181 1.0000000180025095e-35 186.50000000000003 40485.000000000007 87855.000000000015 3354.0000000000005 0.12501046698872789 1.9986887424033497 1.5000000000000002 0.10000827951647626 0.51257812500000011 0.00013672932751546403 0.26108859580052496 0.36920156099026047 130228.50000000001 4.5000000000000009 13804.000000000002 903872.50000000012 18.675900021114881 135101.00000000003 1.5000000000000002 1.0000000180025095e-35 234.50000000000003 912201.50000000012 9121.0000000000018 127220.00000000001 9044.0000000000018 0.06648969939544469
decision_type=2 2 2 2 2 2 2 2 2 2 2 2 2 2 2 2 2 2 2 2 2 2 2 2 2 2 2 2 2 2
left_child=1 3 5 4 7 8 9 18 10 12 29 17 14 -3 26 -5 20 28 22 -8 -14 -18 23 24 -1 -11 -7 -28 -9 -2
right_child=2 13 -4 15 -6 6 19 11 -10 25 -12 -13 16 -15 -16 -17 21 -19 -20 -21 -22 -23 -24 -25 -26 -27 27 -29 -30 -31
leaf_value=-0.3407871046066287 0.067913480758666725 0.064707162857055786 -0.084042966842651279 0.15377544784545913 0.12774785041809089 0.18772167778015111 0.0056297092437745284 -0.0046338710784912251 -0.023622081756591841 -0.052991224288940236 -0.065787769317626754 -0.075711870193481454 0.0092008514404298587 -0.049278093338012856 -0.05168160629272478 -0.043120523452758519 0.030791275024414234 -0.16951313781738264 0.041548568725585967 -0.04819211578369114 -0.0079483108520506107 -0.0047496299743652777 -0.3395285692214966 -0.38875467109680173 -0.100751585006714 0.032036680221557749 -0.033385049819946035 0.094719675064087031 0.037593053817749224 -0.099373332977295101
leaf_weight=3730 893 1158 652 456 1153 11408 431 568 560 268 201 935 435 144 111 242 981 119 40 306 328 130 1923 2261 1861 240 87 541 225 22
leaf_count=3730 893 1158 652 456 1153 11408 431 568 560 268 201 935 435 144 111 242 981 119 40 306 328 130 1923 2261 1861 240 87 541 225 22
internal_value=0 -0.00367336 0.00300765 -0.00435467 -0.00471884 0.00329281 0.00362197 -0.00524188 0.00029459 0.0038729 0.00223225 -0.00281794 0.00404762 0.00339775 0.00437711 0.00233135 0.00191191 -0.000407577 -0.00569802 -0.0013248 6.06266e-06 0.00322078 -0.00573515 -0.00548511 -0.00612445 -0.000949268 0.00444788 0.0026376 0.000408817 0.00376587
internal_weight=0 14815 17594 13513 12815 16942 15266 11662 1676 14529 1116 1847 14021 1302 12147 698 1874 912 9815 737 763 1111 9775 7852 5591 508 12036 628 793 915
internal_count=32409 14815 17594 13513 12815 16942 15266 11662 1676 14529 1116 1847 14021 1302 12147 698 1874 912 9815 737 763 1111 9775 7852 5591 508 12036 628 793 915
is_linear=0
shrinkage=0.1


Tree=3
num_leaves=31
num_cat=0
split_feature=1 69 93 94 78 1 42 65 42 46 1 76 76 65 74 1 65 1 41 46 46 16 1 65 40 69 69 46 1 78
split_gain=33.7083 6.74141 3.47873 3.16943 3.25563 1.86242 1.60988 2.01499 1.34382 1.21307 1.13322 0.748931 0.654589 0.619305 0.617734 0.593348 0.916142 0.419999 0.388016 0.333896 0.326203 0.308082 0.288932 0.462956 0.35102 0.264682 0.75215 0.253855 0.207483 0.231802
threshold=18100.000000000004 11804.000000000002 0.36205023738650438 1.0000000180025095e-35 1041.0000000000002 2457.5000000000005 0.23073569651741296 4474.0000000000009 0.1504664430881105 5.0488133764832801 96550.000000000015 0.00031235551801279883 0.26108859580052496 6.5000000000000009 23.175781250000011 314400.00000000006 404716.50000000006 8069.0000000000009 36.001464843750028 0.23157309351420638 0.35342325096777549 13804.000000000002 57370.000000000007 18.500000000000004 2685.0000000000005 1.5000000000000002 1.0000000180025095e-35 1.4867666896175498 320.50000000000006 43.500000000000007
decision_type=2 2 2 2 2 2 2 2 2 2 2 2 2 2 2 2 2 2 2 2 2 2 2 2 2 2 2 2 2 2
left_child=1 3 6 4 5 21 7 9 13 12 19 -3 22 17 -5 -9 20 -7 27 -8 -17 25 23 24 -2 26 28 -12 29 -1
right_child=2 11 -4 14 -6 8 10 15 -10 -11 18 -13 -14 -15 -16 16 -18 -19 -20 -21 -22 -23 -24 -25 -26 -27 -28 -29 -30 -31
leaf_value=-0.30596605405807509 0.079340363883972032 0.053999462318420656 -0.086932653617858693 0.12563583335876488 0.16567630481719961 -0.012648457908630208 -0.0023336288452146191 -0.038317775535583465 -0.074299893379211571 -0.083788293266296068 0.026743699455261095 -0.051467584037780512 -0.053036959457397614 -0.1593362089157104 -0.055126792335509836 0.086521053504943879 -0.039156710052489885 0.031273385429382475 -0.0041599151611325883 -0.033524495315551663 -0.0069670675277709654 0.037393711853027513 0.18002262248992906 -0.039123085403442205 -0.0083166109085084372 -0.31037345705032354 -0.34987920398712158 -0.0608483898162838 -0.091435932731628367 -0.059922221183776971
leaf_weight=3744 937 1222 587 517 1068 751 815 255 1179 247 1598 140 122 192 181 756 408 521 328 251 227 40 10461 105 141 1863 2261 42 1299 151
leaf_count=3744 937 1222 587 517 1068 751 815 255 1179 247 1598 140 122 192 181 756 408 521 328 251 227 40 10461 105 141 1863 2261 42 1299 151
internal_value=0 -0.00350788 0.00295647 -0.00417183 -0.00452248 -0.00499332 0.00322253 0.00368537 -0.00264924 0.00413496 0.00113885 0.00320334 0.00428056 -0.000625721 0.00239361 0.000404133 0.00121705 0.000173356 0.00256123 -0.00148708 0.00287042 -0.00565537 0.00435691 0.00287561 0.00349301 -0.00569296 -0.00542653 0.00318918 -0.00608925 -0.00645425
internal_weight=0 15129 17280 13767 13069 12001 16693 13659 2643 12013 3034 1362 11766 1464 698 1646 1391 1272 1968 1066 983 9358 11644 1183 1078 9318 7455 1640 5194 3895
internal_count=32409 15129 17280 13767 13069 12001 16693 13659 2643 12013 3034 1362 11766 1464 698 1646 1391 1272 1968 1066 983 9358 11644 1183 1078 9318 7455 1640 5194 3895
is_linear=0
shrinkage=0.1


Tree=4
num_leaves=31
num_cat=0
split_feature=1 69 93 94 78 42 67 1 1 1 65 76 42 76 76 67 46 67 46 69 69 69 16 1 1 65 46 1 65 41
split_gain=31.7744 6.75491 3.2186 3.14939 3.5163 2.06793 2.2482 1.58478 0.939486 0.809288 1.08061 0.779546 0.770535 0.756841 0.669168 0.466117 0.448003 0.403599 0.387444 0.343902 0.678821 0.320548 0.313989 0.344795 0.291965 0.250324 0.247779 0.23634 0.225489 0.217168
threshold=11100.000000000002 7880.0000000000009 0.068397876604889843 1.0000000180025095e-35 115.50000000000001 0.145850439882698 0.58758441140114626 101730.00000000001 2457.5000000000005 342336.00000000006 404716.50000000006 0.00047551828887799642 0.079651947845444437 0.10308036834007227 0.33483431653865742 3.0711029228486746 0.15145390112102072 0.057688405797101459 0.54968330849478397 1.5000000000000002 1.0000000180025095e-35 56592.500000000007 4666.5000000000009 73.000000000000014 27168.000000000004 61.500000000000007 2.9795145571658623 38915.000000000007 89.500000000000014 35.971679687500014
decision_type=2 2 2 2 2 2 2 2 2 2 2 2 2 2 2 2 2 2 2 2 2 2 2 2 2 2 2 2 2 2
left_child=1 3 5 4 8 6 13 16 19 28 15 21 17 24 -5 -11 27 -10 -9 20 22 -3 23 -1 25 -2 -26 -7 -8 -29
right_child=2 11 -4 14 -6 7 9 18 12 10 -12 -13 -14 -15 -16 -17 -18 -19 -20 -21 -22 -23 -24 -25 26 -27 -28 29 -30 -31
leaf_value=-0.28608703135490432 0.039592365703583002 0.006293733320236328 -0.069219536571502621 0.13006481899261502 0.074524667072295978 -0.012136549453735414 0.0051879398918149638 0.026946755657196064 -0.0022764163398740324 0.10191835725784344 -0.039351184616088379 -0.058206850109100122 -0.072901360034942547 -0.045819029350280975 -0.037710922489165813 -0.05715221731185878 -0.032011475276947012 -0.14749022687911975 -0.0035783449935912872 -0.29340643147468554 -0.3148912835884094 0.075124250583649049 0.022380547533035158 -0.081604358806610128 0.16223455549240101 -0.044892478523254203 -0.0014461932563783364 0.0054895985221861572 -0.037850778980254775 -0.012984226684570645
leaf_weight=3655 635 502 658 450 1178 464 199 1748 786 1296 354 149 1021 153 248 151 407 189 287 1735 2261 839 45 1424 10259 55 119 638 391 113
leaf_count=3655 635 502 658 450 1178 464 199 1748 786 1296 354 149 1021 153 248 151 407 189 287 1735 2261 839 45 1424 10259 55 119 638 391 113
internal_value=0 -0.00356206 0.00273595 -0.00429346 -0.00466444 0.0029975 0.0035647 0.000886287 -0.00521499 0.000780619 0.00183363 0.00281529 -0.00324987 0.00415794 0.00224077 0.00304519 -0.00144545 -0.00123927 0.0027448 -0.00564507 -0.00534743 0.00357773 -0.0059843 -0.00605798 0.0042545 0.00226262 0.00438694 -0.000483558 -0.00243373 0.000612716
internal_weight=0 14482 17927 12992 12294 17269 13612 3657 11116 2391 1801 1490 1996 11221 698 1447 1622 975 2035 9120 7385 1341 5124 5079 11068 690 10378 1215 590 751
internal_count=32409 14482 17927 12992 12294 17269 13612 3657 11116 2391 1801 1490 1996 11221 698 1447 1622 975 2035 9120 7385 1341 5124 5079 11068 690 10378 1215 590 751
is_linear=0
shrinkage=0.1


Tree=5
num_leaves=31
num_cat=0
split_feature=1 69 94 78 93 1 42 65 65 1 42 46 76 75 42 76 44 65 75 41 16 69 69 69 4 44 66 40 41 1
split_gain=29.5724 6.43807 3.07728 3.3326 2.86283 2.11853 1.67076 2.24097 1.6029 1.02153 1.02827 0.96753 0.779754 0.60601 0.524434 0.43093 0.4255 0.417637 0.345324 0.296012 0.294539 0.336117 0.817566 0.287566 0.246342 0.282132 0.243718 0.202478 0.19237 0.183823
threshold=11100.000000000002 6395.5000000000009 1.0000000180025095e-35 60.000000000000007 0.059940811314661634 101730.00000000001 0.077205793756403976 1.5000000000000002 87855.000000000015 234.50000000000003 0.15332082537135358 2.3570945231988616 0.00010657658351269714 0.17271851371152 0.3065511219413139 0.10308036834007227 19.500000000000004 4.5000000000000009 0.046335000000000008 36.042968750000007 4666.5000000000009 1.0000000180025095e-35 1.5000000000000002 60399.000000000007 0.038273551683423016 1.0000000180025095e-35 14.000000000000002 158702.50000000003 1.0000000180025095e-35 997404.50000000012
decision_type=2 2 2 2 2 2 2 2 2 2 2 2 2 2 2 2 2 2 2 2 2 2 2 2 2 2 2 2 2 2
left_child=1 2 3 9 5 6 7 18 11 20 17 14 23 -4 15 -7 -8 24 -2 27 21 -1 -23 -3 25 28 -10 -16 -11 -13
right_child=4 12 13 -5 -6 8 16 -9 26 10 -12 29 -14 -15 19 -17 -18 -19 -20 -21 -22 22 -24 -25 -26 -27 -28 -29 -30 -31
leaf_value=-0.25302133130168941 0.066969860853194882 0.0072514089670182363 0.12443729674911524 0.060040301866531115 -0.060940695096969581 0.16204656136894224 -0.0018664217300415232 -0.036855541940688498 0.011939811815262047 0.027541031908035408 -0.076796870088577052 -0.067570302186965844 -0.038091956790923837 -0.027483493265152249 0.0075849919643406595 -0.031456452434539983 -0.027115492448807288 -0.15978882172203052 -0.063985711563110573 -0.007582531553268268 0.020142492779731569 -0.28340215522956846 -0.27131962591266617 0.072437608301163081 -0.049454576478958151 -0.023084986597060819 -0.032410463224410435 0.037435685470581605 -0.0058165387210845415 0.02172287777137747
leaf_weight=3680 2483 561 413 1198 661 9609 1300 510 231 345 1802 176 190 285 496 114 488 204 59 262 45 2261 1679 795 176 502 483 900 346 155
leaf_count=3680 2483 561 413 1198 661 9609 1300 510 231 345 1802 176 190 285 496 114 488 204 59 262 45 2261 1679 795 176 502 483 900 346 155
internal_value=0 -0.00345527 -0.00418417 -0.00455252 0.00262059 0.00286785 0.00109299 0.00251507 0.00355917 -0.00509612 -0.00364648 0.00383959 0.00264374 0.00227402 0.0039946 0.00427491 -0.00133442 -0.00177825 0.00372881 0.00235074 -0.00573441 -0.00578205 -0.00514018 0.0034844 -0.00114925 -0.000634018 -0.00104079 0.0029296 0.000676729 -0.00148999
internal_weight=0 14482 12936 12238 17927 17266 4840 3052 12426 11040 3375 11712 1546 698 11381 9723 1788 1573 2542 1658 7665 7620 3940 1356 1369 1193 714 1396 691 331
internal_count=32409 14482 12936 12238 17927 17266 4840 3052 12426 11040 3375 11712 1546 698 11381 9723 1788 1573 2542 1658 7665 7620 3940 1356 1369 1193 714 1396 691 331
is_linear=0
shrinkage=0.1


Tree=6
num_leaves=31
num_cat=0
split_feature=1 69 93 94 78 1 65 42 42 1 46 76 75 65 76 67 43 69 69 1 16 40 41 66 41 69 108 93 1 1
split_gain=27.3037 5.87426 2.70452 2.66685 2.79607 2.55994 1.47432 2.06913 1.17198 1.01584 0.934003 0.826684 0.573395 0.551786 0.44505 0.420828 0.415771 0.400129 0.417906 0.598645 0.379067 0.333615 0.304323 0.277061 0.26759 0.261211 0.255406 0.225103 0.222006 0.221913
threshold=23680.000000000004 4643.0000000000009 0.47833962473165109 1.0000000180025095e-35 36.500000000000007 3860.0000000000005 4997.5000000000009 0.084976816326530633 0.13133873913305968 182035.00000000003 2.0017594700890089 0.00062310331044935683 0.17271851371152 107.00000000000001 0.50781645156282085 0.28747491600094338 1.0000000180025095e-35 1.5000000000000002 1.0000000180025095e-35 73.000000000000014 391.50000000000006 239.50000000000003 32.112792968750014 25.01953125 21.109326611768022 65566.500000000015 1.0000000180025095e-35 0.017470366162330199 342336.00000000006 38915.000000000007
decision_type=2 2 2 2 2 2 2 2 2 2 2 2 2 2 2 2 2 2 2 2 2 2 2 2 2 2 2 2 2 2
left_child=1 3 6 4 5 17 7 10 13 16 14 25 -5 -7 27 -8 24 18 19 20 -1 -21 -11 28 26 -3 29 -2 -17 -9
right_child=2 11 -4 12 -6 8 15 9 -10 22 -12 -13 -14 -15 -16 23 -18 -19 -20 21 -22 -23 -24 -25 -26 -27 -28 -29 -30 -31
leaf_value=-0.2367034778040889 0.13148397088298794 0.0084023253870967093 -0.07064099814586626 0.11199356707420378 0.047448480237006763 0.0094912547422406849 0.090495319464302074 -0.0030862584388732018 -0.043707293858528118 0.0379610759689335 -0.018724640452766294 -0.051846390262221931 -0.024735143938637096 -0.090324299720191806 -0.070125286978912627 -0.024962091735267578 -0.015484165553474583 -0.25344297719469039 -0.25506193970661145 -0.03862805197420123 0.015205831497287648 -0.076516913834571917 0.003466629410934985 -0.032281068416023122 -0.0081369118965149319 0.067544082456398521 -0.0099106427219389573 -0.00077024008922563789 0.015115905600166714 0.012868101594161985
leaf_weight=3599 10588 704 545 413 1222 1245 293 185 1003 1260 402 173 285 145 85 150 505 1576 2261 877 57 1131 405 532 329 772 236 124 624 683
leaf_count=3599 10588 704 545 413 1222 1245 293 185 1003 1260 402 173 285 145 85 150 505 1576 2261 877 57 1131 405 532 329 772 236 124 624 683
internal_value=0 -0.00313399 0.00267717 -0.0038074 -0.00412793 -0.00459593 0.00290746 0.00321908 -0.00167269 0.00113464 0.0038897 0.00250731 0.00221559 0.000207193 0.00406592 2.27883e-05 -0.000421729 -0.0053322 -0.00504281 -0.00550161 -0.00626352 -0.00411439 0.00294619 -0.000745617 0.000447777 0.00327385 0.00119375 0.00412311 0.000461923 0.00198685
internal_weight=0 15463 16946 13814 13116 11894 16401 14802 2393 3603 11199 1649 698 1390 10797 1599 1938 9501 7925 5664 3656 2008 1665 1306 1433 1476 1104 10712 774 868
internal_count=32409 15463 16946 13814 13116 11894 16401 14802 2393 3603 11199 1649 698 1390 10797 1599 1938 9501 7925 5664 3656 2008 1665 1306 1433 1476 1104 10712 774 868
is_linear=0
shrinkage=0.1


Tree=7
num_leaves=31
num_cat=0
split_feature=1 69 93 94 1 78 67 42 40 65 1 76 42 76 74 1 65 1 41 16 69 69 65 44 4 44 41 69 41 69
split_gain=24.6714 5.27828 2.51899 2.36962 2.70438 3.15863 1.33233 1.49494 0.862387 0.865702 0.855646 0.796864 0.604626 0.574129 0.5358 0.53428 0.510597 0.536589 0.372002 0.324693 0.394186 0.837174 0.309008 0.297479 0.275296 0.264867 0.257331 0.237298 0.230632 0.220675
threshold=33963.500000000007 3418.0000000000005 0.47833962473165109 1.0000000180025095e-35 5135.0000000000009 24.500000000000004 0.77853455103660274 0.11012088499001414 2345.0000000000005 37.500000000000007 36.000000000000007 0.0013404461201974953 0.13811436103519739 0.098322475862377398 19.000000000000004 182035.00000000003 50730.500000000007 912201.50000000012 18.675900021114881 391.50000000000006 1.0000000180025095e-35 1.5000000000000002 1.5000000000000002 178220.00000000003 0.2131587727016139 7092.5000000000009 14.000000000000002 75087.000000000015 61.579101562500028 24136.000000000004
decision_type=2 2 2 2 2 2 2 2 2 2 2 2 2 2 2 2 2 2 2 2 2 2 2 2 2 2 2 2 2 2
left_child=1 3 6 4 5 10 7 13 9 24 19 27 22 -2 -5 18 17 -8 -9 20 -1 -22 -12 28 25 -6 -10 29 -17 -3
right_child=2 11 -4 14 8 -7 16 15 26 -11 12 -13 -14 -15 -16 23 -18 -19 -20 -21 21 -23 -24 -25 -26 -27 -28 -29 -30 -31
leaf_value=-0.27237169966479335 0.12031233596357326 0.012619151042547473 -0.063576898331279705 0.085453405313072398 0.03529394124921801 0.035858157970142204 -0.0096538164297680154 0.0062222506436160792 -0.0093959395514112039 -0.065431049225864166 -0.014625908480367756 -0.053397899850882884 -0.057484454628849241 -0.040532980734310442 -0.03242604299692111 0.029573933679276011 -0.019331673568591869 0.085546021218814883 -0.0087857408247565168 0.013685248347558954 -0.22955574573595039 -0.23956775753918613 -0.17294389510222424 -0.006937168239898029 -0.013172855625782277 -0.030273761997852588 -0.038924195698261249 0.062090867448063497 -0.027117135034103158 -0.00021235986081080682
leaf_weight=2526 10202 497 545 482 1072 1239 544 939 525 219 1205 165 2450 144 216 1337 680 847 631 57 2261 1468 165 209 155 64 420 755 50 340
leaf_count=2526 10202 497 545 482 1072 1239 544 939 525 219 1205 165 2450 144 216 1337 680 847 631 57 2261 1468 165 209 155 64 420 755 50 340
internal_value=0 -0.00282486 0.00269336 -0.00345111 -0.00373811 -0.00438796 0.00292708 0.00328908 -0.00072816 0.000754538 -0.00497078 0.00235196 -0.00378951 0.00387095 0.00223371 0.00138764 0.000565245 0.00166309 7.78705e-05 -0.00568568 -0.00575415 -0.00510078 -0.00210709 0.00267608 0.00174071 0.00228012 -0.00309734 0.00303757 0.00320604 0.00187802
internal_weight=0 16281 16128 14524 13826 11371 15583 13512 2455 1510 10132 1757 3820 10346 698 3166 2071 1391 1570 6312 6255 3729 1370 1596 1291 1136 945 1592 1387 837
internal_count=32409 16281 16128 14524 13826 11371 15583 13512 2455 1510 10132 1757 3820 10346 698 3166 2071 1391 1570 6312 6255 3729 1370 1596 1291 1136 945 1592 1387 837
is_linear=0
shrinkage=0.1


Tree=8
num_leaves=31
num_cat=0
split_feature=1 69 68 93 42 11 46 67 65 1 1 76 69 69 42 65 23 44 25 1 78 75 65 1 41 65 1 44 4 1
split_gain=22.2765 5.05207 2.32757 2.31029 2.01154 2.87358 1.42978 1.07634 0.976754 0.935995 0.812069 0.77085 0.510498 0.557042 0.499024 0.69839 0.496125 0.485914 0.401491 0.642919 0.652308 0.46803 0.302408 0.300575 0.298107 0.292989 0.288097 0.270299 0.28566 0.267082
threshold=33963.500000000007 2820.0000000000005 1.0000000180025095e-35 0.059940811314661634 0.19993015246031939 1.0000000180025095e-35 0.34570094506757792 0.28747491600094338 17033.000000000004 148447.00000000003 974422.50000000012 0.00062310331044935683 1.5000000000000002 1.0000000180025095e-35 0.044472222222222225 2.5000000000000004 1.0000000180025095e-35 120960.50000000001 1.0000000180025095e-35 6937.5000000000009 13763.000000000002 0.17271851371152 903872.50000000012 373155.00000000006 21.109326611768022 92027.000000000015 9044.0000000000018 1024.5000000000002 0.1960128552515131 1705.0000000000002
decision_type=2 2 2 2 2 2 2 2 2 2 2 2 2 2 2 2 2 2 2 2 2 2 2 2 2 2 2 2 2 2
left_child=1 2 4 6 5 7 8 16 9 14 17 -3 13 -4 15 -2 18 -8 19 20 29 -20 23 -10 -16 -12 -6 28 -21 -1
right_child=3 11 12 -5 26 -7 10 -9 22 -11 25 -13 -14 -15 24 -17 -18 -19 21 27 -22 -23 -24 -25 -26 -27 -28 -29 -30 -31
leaf_value=-0.059446950338383077 0.052530937030607211 0.020588994055968615 -0.30907076321882204 -0.047093285341413355 -0.057391297862253415 -0.28417004071515989 0.0036234522055163866 -0.092900421349863302 -0.018421649930375851 0.12121616859036061 0.065103688426786377 -0.044395046816478261 -0.21831865390440797 -0.20660017116235529 0.0068862228029178858 -0.021851208521837154 -0.23594301663679076 -0.0237952932158354 0.09225688069973402 0.03557892289486482 0.19959839197781515 -0.020805429987426651 -0.030398652437203567 0.031778803022390889 -0.0086728151277675643 -0.045633487698930254 -0.016565035744851998 -0.014062621939271481 -0.0081410086008016688 -0.0082407846942796677
leaf_weight=1266 1879 1604 490 660 3200 761 736 511 164 8665 1041 189 1432 2261 969 188 153 534 413 897 892 285 260 553 377 102 675 245 143 864
leaf_count=1266 1879 1604 490 660 3200 761 736 511 164 8665 1041 189 1432 2261 969 188 153 534 413 897 892 285 260 553 377 102 675 245 143 864
internal_value=0 -0.00272727 -0.00334697 0.00251628 -0.00253942 -0.00145482 0.00276351 -0.000680274 0.00317685 0.00342286 0.00052723 0.00228008 -0.00533639 -0.00453935 0.00202019 0.00299596 -0.000246572 -0.00121313 -7.50976e-05 -0.000435657 -0.00123236 0.00214973 0.000135586 0.00119503 0.000521748 0.00246096 -0.00433916 0.00143798 0.00214193 -0.00218312
internal_weight=0 16281 14488 16128 10305 6430 15468 5669 13055 12078 2413 1793 4183 2751 3413 2067 5158 1270 5005 4307 3022 698 977 717 1346 1143 3875 1285 1040 2130
internal_count=32409 16281 14488 16128 10305 6430 15468 5669 13055 12078 2413 1793 4183 2751 3413 2067 5158 1270 5005 4307 3022 698 977 717 1346 1143 3875 1285 1040 2130
is_linear=0
shrinkage=0.1


Tree=9
num_leaves=31
num_cat=0
split_feature=1 69 68 93 11 42 42 67 67 76 75 41 65 23 69 69 1 4 67 95 76 1 78 69 66 1 65 41 1 69
split_gain=20.0576 4.77079 2.16481 1.86489 1.79529 2.69466 1.57058 1.99637 0.901143 0.767653 0.741794 0.690772 0.599189 0.488325 0.475038 0.557042 0.459214 0.408689 0.384967 0.376408 0.44142 0.379974 0.553068 0.295594 0.294598 0.278582 0.328534 0.269955 0.251856 0.248885
threshold=28591.500000000004 2269.5000000000005 1.0000000180025095e-35 0.045391373624832476 1.0000000180025095e-35 0.1504664430881105 0.077205793756403976 0.28102302318517386 0.50006300565587691 0.0020192666063259196 0.046335000000000008 20.837662337662348 1104.5000000000002 1.0000000180025095e-35 1.5000000000000002 1.0000000180025095e-35 233053.50000000003 1.2660521846193913 6.1278788221828115 25880.500000000004 0.51460371863464871 6937.5000000000009 13763.000000000002 77939.000000000015 25.01953125 101730.00000000001 2.5000000000000004 14.000000000000002 65.500000000000014 24136.000000000004
decision_type=2 2 2 2 2 2 2 2 2 2 2 2 2 2 2 2 2 2 2 2 2 2 2 2 2 2 2 2 2 2
left_child=1 2 4 6 5 8 7 10 13 23 17 16 18 19 15 -4 -8 25 -9 21 -21 22 28 29 -14 26 -2 -7 -1 -3
right_child=3 9 14 -5 -6 27 11 12 -10 -11 -12 -13 24 -15 -16 -17 -18 -19 -20 20 -22 -23 -24 -25 -26 -27 -28 -29 -30 -31
leaf_value=-0.10853883750261062 0.042621814579987927 0.0094871260405618336 -0.27816368689693988 -0.042383956807271875 -0.25575303664364385 -0.036472341042631487 0.0025187556145716884 0.061354515828328009 -0.097371983419659719 -0.047053401226942175 -0.010897809320620767 -0.007387509549397109 0.0035938092480904517 -0.21234871497311172 -0.2037950809028832 -0.18594015404611977 0.028659896920519758 -0.021439159541105826 -0.072194896489224197 0.070200076907104503 -0.033668772791906679 0.01531335124014035 0.1796385527800336 0.054459172801566424 -0.027783052212977569 0.14084275266361779 -0.024714732937178852 -0.055814496730889479 -0.0097588140892312936 -0.0016387153283996981
leaf_weight=875 1748 587 490 663 761 1938 1427 1166 400 168 346 1260 882 153 1370 2261 923 119 115 484 205 967 892 744 613 7369 88 1848 1191 356
leaf_count=875 1748 587 490 663 761 1938 1427 1166 400 168 346 1260 882 153 1370 2261 923 119 115 484 205 967 892 744 613 7369 88 1848 1191 356
internal_value=0 -0.002738 -0.0033765 0.00224002 -0.00256176 -0.00216541 0.00245463 0.00298729 -0.000680367 0.00202413 0.00366587 0.000618206 0.000623499 -0.000297819 -0.00529702 -0.00453935 0.0016311 0.00383459 0.00221065 -0.000113514 0.00204225 -0.000491939 -0.0010545 0.00266609 -0.00073646 0.00390987 0.00280774 -0.00419214 -0.00195298 0.00149033
internal_weight=0 15690 13835 16719 9714 8953 16056 12446 5167 1855 9670 3610 2776 4767 4121 2751 2350 9324 1281 4614 689 3925 2958 1687 1495 9205 1836 3786 2066 943
internal_count=32409 15690 13835 16719 9714 8953 16056 12446 5167 1855 9670 3610 2776 4767 4121 2751 2350 9324 1281 4614 689 3925 2958 1687 1495 9205 1836 3786 2066 943
is_linear=0
shrinkage=0.1


Tree=10
num_leaves=31
num_cat=0
split_feature=1 69 78 25 1 92 1 46 44 65 65 42 76 109 1 65 4 42 74 16 69 69 76 40 93 1 41 69 4 41
split_gain=18.1233 4.79716 2.23969 2.50595 2.00057 1.55158 1.90207 1.34303 1.17136 1.06463 0.884322 0.840858 0.795037 0.763702 0.624241 0.438415 0.433194 0.543137 0.423938 0.359358 0.363672 0.700146 0.351054 0.320072 0.283679 0.282475 0.377101 0.276381 0.252429 0.258296
threshold=11100.000000000002 1760.0000000000002 18.000000000000004 1.0000000180025095e-35 36.000000000000007 18.000000000000004 342336.00000000006 0.042121501177323488 159541.50000000003 150143.00000000003 73.500000000000014 0.33352508157809946 0.0024334501705191368 0.047204401612667563 1153732.0000000002 6.5000000000000009 0.51085934976506631 0.016607628594361247 23.175781250000011 71.500000000000014 1.0000000180025095e-35 1.5000000000000002 0.048793444976076565 1587000.0000000002 0.68356930047712827 1050.0000000000002 6.0000000000000009 86405.500000000015 0.08199873163009376 6.0000000000000009
decision_type=2 2 2 2 2 2 2 2 2 2 2 2 2 2 2 2 2 2 2 2 2 2 2 2 2 2 2 2 2 2
left_child=1 2 3 4 19 6 7 10 9 22 13 15 27 16 -10 28 17 -2 -5 20 -1 -22 23 24 -8 26 -13 -3 29 -6
right_child=5 12 -4 18 11 -7 8 -9 14 -11 -12 25 -14 -15 -16 -17 -18 -19 -20 -21 21 -23 -24 -25 -26 -27 -28 -29 -30 -31
leaf_value=-0.22256183439810151 0.055176344547770387 0.0061916115385027837 0.037409123556752633 0.059421448000573918 0.0040377943157253069 -0.051903457549884638 0.11179780545666206 -0.013010269097619088 -0.023474455345139946 -0.01399027839554492 -0.02320233863970458 8.7996010601543165e-05 -0.045260042948129714 -0.011284765839330291 0.030436607031369078 -0.1126537592556744 -0.0066046756224395157 0.0054873953810094635 -0.03733198094370991 0.023164389703198653 -0.16734613864150774 -0.19035488860849326 -0.037452734102990347 -0.037614316697446526 -0.0068911742246893226 -0.054609618779298687 -0.037690972919540759 0.057521174832933043 -0.038839996388700726 -0.014038490869748444
leaf_weight=2501 2651 1038 1257 517 1045 482 8323 1496 504 485 427 310 178 373 625 209 402 1850 181 64 2261 1320 108 68 133 1222 655 689 206 829
leaf_count=2501 2651 1038 1257 517 1045 482 8323 1496 504 485 427 310 178 373 625 209 402 1850 181 64 2261 1320 108 68 133 1222 655 689 206 829
internal_value=0 -0.00280749 -0.00351583 -0.00396051 -0.00434191 0.00194896 0.0021036 0.000857888 0.00297886 0.00335512 0.00155744 -0.00273377 0.00186899 0.0019117 -5.95587e-05 -0.00139404 0.00224354 0.00252445 0.00184364 -0.00551309 -0.00559153 -0.0049453 0.00361127 0.00368305 0.003738 -0.00413599 -0.00285708 0.00252484 -0.000955346 -0.000590099
internal_weight=0 14482 12577 11320 10622 17927 17445 7199 10246 9117 5703 4476 1905 5276 1129 2289 4903 4501 698 6146 6082 3581 8632 8524 8456 2187 965 1727 2080 1874
internal_count=32409 14482 12577 11320 10622 17927 17445 7199 10246 9117 5703 4476 1905 5276 1129 2289 4903 4501 698 6146 6082 3581 8632 8524 8456 2187 965 1727 2080 1874
is_linear=0
shrinkage=0.1


Tree=11
num_leaves=31
num_cat=0
split_feature=1 69 78 25 1 42 65 93 76 40 41 46 4 1 75 1 67 74 1 16 41 65 44 65 43 69 69 1 69 44
split_gain=16.0763 4.4702 2.13713 2.33235 1.88512 1.68299 1.8504 2.16168 0.789463 0.782002 0.781642 0.762686 0.827216 0.762634 0.63124 0.424679 0.408625 0.361351 0.346405 0.334655 0.329942 0.466049 0.309446 0.373657 0.303881 0.293369 0.684827 0.286614 0.233204 0.229316
threshold=9044.0000000000018 1363.5000000000002 12.500000000000002 1.0000000180025095e-35 26.000000000000004 0.05342064595889353 50.500000000000007 0.045391373624832476 1.6383175965643128e-05 1058.5000000000002 24.181640625000011 1.1129995605191867 0.49997474869547825 342336.00000000006 0.043032345932087983 233053.50000000003 0.1035343768462685 23.175781250000011 61445.000000000007 71.500000000000014 14.000000000000002 6.5000000000000009 99999.500000000015 903872.50000000012 1.0000000180025095e-35 1.0000000180025095e-35 1.5000000000000002 19.500000000000004 86405.500000000015 249225.00000000003
decision_type=2 2 2 2 2 2 2 2 2 2 2 2 2 2 2 2 2 2 2 2 2 2 2 2 2 2 2 2 2 2
left_child=1 2 3 4 19 6 7 11 28 20 15 12 14 -8 18 24 -15 -5 -2 25 21 -6 23 -18 -7 27 -27 -1 -3 -20
right_child=5 8 -4 17 9 10 13 -9 -10 -11 -12 -13 -14 16 -16 -17 22 -19 29 -21 -22 -23 -24 -25 -26 26 -28 -29 -30 -31
leaf_value=-0.20702471421232094 0.026962310404272573 0.0066619660706876971 0.026423719623928935 0.053479303200516526 -0.0059339884180332099 0.0032016657922486758 -0.027676578757059291 -0.0343967831110394 -0.030193954797401192 -0.050095973569839462 -0.011657576681812998 -0.012048661200977407 0.0038755618048387677 0.10297086533458 -0.010100733915442106 0.016624012314505165 0.025986711525937879 -0.033598782849339058 0.12237626196389258 0.020847950732878751 -0.026270554074175223 -0.10582887081027047 -0.045005203202285321 -0.026319140278737763 -0.01150420947831492 -0.15061152477735701 -0.17783328143099358 -0.037507981208347557 0.057051840857940662 0.026191125954697015
leaf_weight=1902 1527 1033 1266 517 1788 1552 635 664 278 1052 1177 480 849 334 317 1154 1039 181 7031 64 1320 193 266 265 477 2261 1255 507 659 366
leaf_count=1902 1527 1033 1266 517 1788 1552 635 664 278 1052 1177 480 849 334 317 1154 1039 181 7031 64 1320 193 266 265 477 2261 1255 507 659 366
internal_value=0 -0.00273855 -0.00344655 -0.00389281 -0.00427042 0.00174775 0.0022898 0.00284084 0.00168413 -0.0026868 3.54611e-05 0.00318851 0.00337378 -0.00014832 0.00364823 0.00084966 0.000852555 0.00170202 0.003804 -0.00542144 -0.00193015 -0.00111406 0.000176858 0.000810938 -2.14519e-05 -0.00549913 -0.00491668 -0.00634923 0.00249557 0.00408708
internal_weight=0 14276 12306 11040 10342 18133 13773 11234 1970 4353 4360 10570 10090 2539 9241 3183 1904 698 8924 5989 3301 1981 1570 1304 2029 5925 3516 2409 1692 7397
internal_count=32409 14276 12306 11040 10342 18133 13773 11234 1970 4353 4360 10570 10090 2539 9241 3183 1904 698 8924 5989 3301 1981 1570 1304 2029 5925 3516 2409 1692 7397
is_linear=0
shrinkage=0.1


Tree=12
num_leaves=31
num_cat=0
split_feature=1 69 68 11 42 93 42 65 65 76 41 44 1 23 1 67 69 69 75 4 4 75 95 1 78 42 44 4 69 41
split_gain=14.9015 3.50297 2.84506 2.22208 1.85077 1.3889 1.14999 1.56772 0.940612 0.728699 0.687201 0.619069 0.61973 0.579587 0.474383 0.458796 0.341342 0.557042 0.339333 0.337033 0.335944 0.319752 0.370382 0.388488 0.494645 0.392067 0.313805 0.306978 0.300866 0.298164
threshold=40485.000000000007 1223.0000000000002 1.0000000180025095e-35 1.0000000180025095e-35 0.2738010816326531 0.52669588625215791 0.13133873913305968 112.00000000000001 1.5000000000000002 0.0024334501705191368 18.675900021114881 135101.00000000003 271098.50000000006 1.0000000180025095e-35 1153732.0000000002 0.070270940479224539 1.5000000000000002 1.0000000180025095e-35 0.046335000000000008 0.16649000000000005 0.49997474869547825 0.79790406782295531 32633.000000000004 2150.5000000000005 13763.000000000002 0.0092627992237319275 1403.0000000000002 0.33901308736692165 391.00000000000006 16.289473684210531
decision_type=2 2 2 2 2 2 2 2 2 2 2 2 2 2 2 2 2 2 2 2 2 2 2 2 2 2 2 2 2 2
left_child=1 2 3 4 8 6 7 11 13 -3 -8 12 26 19 -13 -9 17 -4 20 21 -14 22 23 24 -1 -25 27 -2 -18 -6
right_child=5 9 16 -5 29 -7 10 15 -10 -11 -12 14 18 -15 -16 -17 28 -19 -20 -21 -22 -23 -24 25 -26 -27 -28 -29 -30 -31
leaf_value=-0.030393368533064093 0.046048021762814889 0.012849531276783212 -0.20738866334620348 -0.18721907811823721 -0.022925419353550327 -0.044199069775296355 0.0093871612819469881 0.085330105095067318 -0.064142710833539951 -0.039270253443929273 -0.006044867483312899 -0.020984853790372782 0.12767769333130588 -0.14316298967066637 0.02943806407944223 -0.0050835988462964114 -0.1974487684429235 -0.13555037229962127 0.0035975947861608404 -0.023666303010074687 0.01435820005375419 -0.073677152915112037 0.048870668799852628 0.022868642480774071 0.15529141318396214 -0.0058959822897428184 0.00025027711372551666 -0.0047438965038629991 -0.029306163615042638 -0.046152296477671939
leaf_weight=1475 1618 1801 490 761 2292 507 1539 307 469 193 1464 359 6066 177 512 1911 954 2261 239 305 489 198 539 1318 892 727 629 276 277 1364
leaf_count=1475 1618 1801 490 761 2292 507 1539 307 469 193 1464 359 6066 177 512 1911 954 2261 239 305 489 198 539 1318 892 727 629 276 277 1364
internal_value=0 -0.00234171 -0.00288217 -0.00202022 -0.00161425 0.00194754 0.00211699 0.00254202 -0.000547956 0.00158813 0.000361094 0.00306653 0.00330487 -0.000189584 0.000517033 0.000132766 -0.00515869 -0.00453935 0.00380187 -6.81766e-06 0.00393682 0.000184505 0.000342097 3.97846e-05 -0.000832421 0.00104932 0.00196652 0.00260922 -0.00654277 -0.00339336
internal_weight=0 16493 14499 10517 9756 15916 15409 12406 6100 1994 3003 10188 9317 5631 871 2218 3982 2751 6794 5454 6555 5149 4951 4412 2367 2045 2523 1894 1231 3656
internal_count=32409 16493 14499 10517 9756 15916 15409 12406 6100 1994 3003 10188 9317 5631 871 2218 3982 2751 6794 5454 6555 5149 4951 4412 2367 2045 2523 1894 1231 3656
is_linear=0
shrinkage=0.1


Tree=13
num_leaves=31
num_cat=0
split_feature=1 69 78 25 1 42 67 93 40 41 76 4 75 1 65 1 69 69 16 44 65 41 75 70 44 1 1 44 3 6
split_gain=13.805 3.91799 2.05906 2.18835 2.04415 1.6166 1.51582 1.84648 0.830324 0.738686 0.725607 0.718016 0.770203 0.650624 0.547671 0.394666 0.361575 0.686676 0.46262 0.352453 0.311722 0.394944 0.311211 0.297199 0.290857 0.26621 0.245437 0.245053 0.235234 0.234497
threshold=6937.5000000000009 886.00000000000011 9.5000000000000018 1.0000000180025095e-35 19.500000000000004 0.040022500000000009 0.17337861567786519 0.045391373624832476 1103.5000000000002 17.962890625000011 0.0038283862817086929 0.24226152801808501 0.043032345932087983 838531.00000000012 84428.000000000015 210873.00000000003 1.0000000180025095e-35 1.5000000000000002 71.500000000000014 1403.0000000000002 1.5000000000000002 6.0000000000000009 0.36920156099026047 23.000000000000004 99999.500000000015 98990.000000000015 26.000000000000004 486065.00000000006 0.0057520006317453428 0.37681090163177022
decision_type=2 2 2 2 2 2 2 2 2 2 2 2 2 2 2 2 2 2 2 2 2 2 2 2 2 2 2 2 2 2
left_child=1 2 3 4 16 6 7 11 20 25 23 12 15 -8 27 19 18 -18 -1 29 21 26 -5 -3 -17 -7 -6 -15 -13 -2
right_child=5 10 -4 22 8 9 13 -9 -10 -11 -12 28 -14 14 -16 24 17 -19 -20 -21 -22 -23 -24 -25 -26 -27 -28 -29 -30 -31
leaf_value=-0.16909064183351302 0.046645021259566738 0.019039295083909381 0.025128484807811449 0.054816571625479683 -0.029259936867489778 0.00034494071038793095 -0.014668511966246101 -0.030565333757239445 -0.048140023213037612 -0.0072989439994827878 -0.036931017675927789 0.02625036008988282 -0.016887549588247452 0.059120825120992752 -0.016511314920407472 0.13515757414465954 -0.12199533506965921 -0.15403369506542808 0.021802492512897231 0.0032700965503295269 -0.11881697874101144 -0.022170925908648442 -0.019280369538091337 0.0032092103583355683 0.021830027324818247 0.013242831763406926 -0.0022108224670812858 -0.010877209470625005 -0.0093379676919777676 0.0049162582542141564
leaf_weight=1895 1918 969 1273 456 307 1233 1271 665 849 2233 205 416 362 1190 530 5179 2261 1138 64 579 203 1699 242 913 578 1234 1456 167 605 319
leaf_count=1895 1918 969 1273 456 307 1233 1271 665 849 2233 205 416 362 1190 530 5179 2261 1138 64 579 203 1699 242 913 578 1234 1456 167 605 319
internal_value=0 -0.00264393 -0.00334795 -0.00380554 -0.00418814 0.00152512 0.00207138 0.0026433 -0.0026204 -7.63658e-05 0.00135115 0.00298407 0.00327114 0.00014788 0.00132588 0.00346193 -0.00550893 -0.00488529 -0.00659101 0.0024918 -0.00196763 -0.00174431 0.00160568 0.00196655 0.00393646 0.00111636 -0.000695797 0.00239057 0.000471844 0.00306097
internal_weight=0 13930 11843 10570 9872 18479 13779 10621 4514 4700 2087 9956 8935 3158 1887 8573 5358 3399 1959 2816 3665 3462 698 1882 5757 2467 1763 1357 1021 2237
internal_count=32409 13930 11843 10570 9872 18479 13779 10621 4514 4700 2087 9956 8935 3158 1887 8573 5358 3399 1959 2816 3665 3462 698 1882 5757 2467 1763 1357 1021 2237
is_linear=0
shrinkage=0.1


Tree=14
num_leaves=31
num_cat=0
split_feature=1 69 68 11 42 65 92 42 46 41 4 1 76 75 65 23 65 1 5 1 44 69 69 69 4 69 108 45 44 1
split_gain=12.7987 3.51949 1.99622 2.02955 1.38707 1.43293 1.61777 1.27963 0.670763 0.603255 0.595647 0.58201 0.545057 0.519108 0.501476 0.510923 0.458756 0.375846 0.380548 0.370706 0.489801 0.352595 0.438748 0.472928 0.330227 0.294302 0.259746 0.350213 0.238997 0.229754
threshold=6937.5000000000009 1223.0000000000002 1.0000000180025095e-35 1.0000000180025095e-35 0.034766304347826092 112.00000000000001 18.000000000000004 0.33352508157809946 6.9981770888966652 17.962890625000011 0.43749988734267797 1059596.0000000002 0.0038283862817086929 0.043032345932087983 1.5000000000000002 1.0000000180025095e-35 1013112.0000000001 1050.0000000000002 0.30565889845447963 82033.500000000015 83071.500000000015 1.0000000180025095e-35 1.5000000000000002 371.50000000000006 0.088727117557780524 86405.500000000015 1.0000000180025095e-35 0.4884899193179027 525.50000000000011 1153732.0000000002
decision_type=2 2 2 2 2 2 2 2 2 2 2 2 2 2 2 2 2 2 2 2 2 2 2 2 2 2 2 2 2 2
left_child=1 2 3 7 5 6 8 14 10 26 13 -7 25 19 15 24 -13 18 -9 28 -21 -4 -23 -24 -1 -3 27 -6 -2 -22
right_child=4 12 21 -5 9 11 -8 17 -10 -11 -12 16 -14 -15 -16 -17 -18 -19 -20 20 29 22 23 -25 -26 -27 -28 -29 -30 -31
leaf_value=-0.0025729137347305199 0.030415018469810207 0.0033003796140722132 -0.16974073282823188 -0.15158810612306209 0.011023260512070365 -0.017156840969073172 -0.038780658596847678 -0.012627735905350157 -0.073341523871273392 -0.0065215444608913492 0.0029706328505021418 0.056413838462603755 -0.032741302999971467 -0.010845047900546235 -0.10729480370458831 -0.11193762652024848 -0.022153503130515163 -0.044085018895719585 -0.040218867515771708 0.095241441363982562 -0.0071542657193688804 -0.10979580156269329 -0.16329215264628766 -0.014966928723558049 -0.038819198328733151 0.044457999100334079 -0.0080561638001370294 -0.0045171943855393691 0.0014340064588054702 0.026401487879482134
leaf_weight=4027 1343 1122 490 761 1636 1187 482 969 204 2260 906 958 183 342 208 177 279 982 662 6648 311 2261 942 289 168 689 299 570 520 534
leaf_count=4027 1343 1122 490 761 1636 1187 482 969 204 2260 906 958 183 342 208 177 279 982 662 6648 311 2261 942 289 168 689 299 570 520 534
internal_value=0 -0.00257906 -0.00322873 -0.00231371 0.00143516 0.00194585 0.00241949 -0.00179414 0.00267229 -3.46474e-05 0.00278155 -0.000260172 0.00130988 0.00301063 -0.000786689 -0.000558453 0.00125771 -0.00355997 -0.00262937 0.00315051 0.00346438 -0.00505649 -0.004704 -0.00622311 -0.000336399 0.00183545 0.00103409 0.00140898 0.00188813 0.00119661
internal_weight=0 13930 11936 7954 18479 13714 11290 7193 10808 4765 10604 2424 1994 9698 4580 4372 1237 2613 1631 9356 7493 3982 3492 1231 4195 1811 2505 2206 1863 845
internal_count=32409 13930 11936 7954 18479 13714 11290 7193 10808 4765 10604 2424 1994 9698 4580 4372 1237 2613 1631 9356 7493 3982 3492 1231 4195 1811 2505 2206 1863 845
is_linear=0
shrinkage=0.1


Tree=15
num_leaves=31
num_cat=0
split_feature=1 69 68 11 3 42 92 1 46 65 76 1 23 65 109 1 40 69 69 65 69 70 41 4 41 65 44 1 4 42
split_gain=11.7676 3.07025 2.33638 2.16833 1.25784 1.14571 0.751632 1.10817 0.82307 0.606947 0.587025 0.56984 0.466973 0.482738 0.464806 0.3388 0.334075 0.324335 0.527777 0.296465 0.295447 0.266426 0.266393 0.251737 0.242931 0.227944 0.223439 0.229822 0.220792 0.280328
threshold=9044.0000000000018 886.00000000000011 1.0000000180025095e-35 1.0000000180025095e-35 0.52182254356648727 0.35397627477423743 18.000000000000004 1153732.0000000002 0.074478032389711998 84428.000000000015 0.0038283862817086929 322490.00000000006 1.0000000180025095e-35 1.5000000000000002 0.03240887027664302 89419.000000000015 1587000.0000000002 1.0000000180025095e-35 1.5000000000000002 1.5000000000000002 301.00000000000006 23.000000000000004 20.000488281250011 0.27789242085054405 6.0000000000000009 1.5000000000000002 332250.50000000006 78364.500000000015 0.13693501244483433 0.013122248819938903
decision_type=2 2 2 2 2 2 2 2 2 2 2 2 2 2 2 2 2 2 2 2 2 2 2 2 2 2 2 2 2 2
left_child=1 2 3 5 11 12 7 8 14 16 21 25 13 23 15 19 -9 -4 -19 24 -20 -3 -7 -1 -6 28 27 -10 29 -2
right_child=4 10 17 -5 6 22 -8 9 26 -11 -12 -13 -14 -15 -16 -17 -18 18 20 -21 -22 -23 -24 -25 -26 -27 -28 -29 -30 -31
leaf_value=-0.001564224789948554 0.034267040702796694 0.016559271262802967 -0.15276665954540861 -0.13642929551075583 0.014419455184259534 -0.022187634482292752 -0.045300694543803394 0.0723813063218227 -0.022889158870339446 -0.013036030319905124 -0.029963785608337901 0.069517098456842771 -0.10183334140728616 -0.083473779446053706 -0.012764745876312135 0.013083558950039277 -0.040677368382144155 -0.098816221406423932 -0.15419045355597538 -0.0219691448707529 -0.018211277988348408 0.0015192276838826404 -0.057051935583137953 -0.03665464292703504 -0.00322856585865452 -0.01879203699332024 -0.028958484816427446 -0.0018591507754187832 -0.0060101227109122142 0.0030139871486635885
leaf_weight=4217 1363 969 490 761 756 2130 349 3328 563 416 205 4129 179 228 374 2724 71 2261 893 219 245 913 617 168 829 141 386 1379 328 778
leaf_count=4217 1363 969 490 761 756 2130 349 3328 563 416 205 4129 179 228 374 2724 71 2261 893 219 245 913 617 168 829 141 386 1379 328 778
internal_value=0 -0.00247827 -0.00308509 -0.0021374 0.00136002 -0.00162388 0.000719492 0.000863868 0.000136256 0.0022428 0.00106583 0.00244299 -0.000690514 -0.000496057 0.000871538 0.00115139 0.00268407 -0.00510769 -0.00476095 8.84651e-05 -0.00651737 0.00161935 -0.00325209 -0.000262794 0.000564979 0.0012864 -0.00141201 -0.000975231 0.00150973 0.00187986
internal_weight=0 14276 12189 8300 18133 7539 11394 11045 7230 3815 2087 6739 4792 4613 4902 4528 3399 3889 3399 1804 1138 1882 2747 4385 1585 2610 2328 1942 2469 2141
internal_count=32409 14276 12189 8300 18133 7539 11394 11045 7230 3815 2087 6739 4792 4613 4902 4528 3399 3889 3399 1804 1138 1882 2747 4385 1585 2610 2328 1942 2469 2141
is_linear=0
shrinkage=0.1


Tree=16
num_leaves=31
num_cat=0
split_feature=1 69 68 11 42 93 67 42 4 41 75 76 65 1 23 65 1 5 1 44 69 69 69 69 1 4 44 6 70 46
split_gain=10.6518 2.86511 2.26597 2.20117 1.2509 1.22052 1.52375 0.953037 0.700424 0.663088 0.641083 0.51909 0.461321 0.423024 0.412384 0.377908 0.374714 0.342932 0.342456 0.46775 0.338508 0.459138 0.326577 0.314037 0.306113 0.242514 0.239609 0.327581 0.219411 0.204728
threshold=6937.5000000000009 886.00000000000011 1.0000000180025095e-35 1.0000000180025095e-35 0.016607628594361247 0.045391373624832476 0.17337861567786519 0.33835375951366292 0.13693501244483433 26.020996093749996 0.043032345932087983 0.0038283862817086929 1.5000000000000002 838531.00000000012 1.0000000180025095e-35 84428.000000000015 1050.0000000000002 0.30565889845447963 134628.00000000003 39015.000000000007 1.0000000180025095e-35 1.5000000000000002 196.00000000000003 97431.000000000015 314400.00000000006 0.27789242085054405 553.00000000000011 0.016890513802145148 14.000000000000002 0.02637231010697617
decision_type=2 2 2 2 2 2 2 2 2 2 2 2 2 2 2 2 2 2 2 2 2 2 2 2 2 2 2 2 2 2
left_child=1 2 3 7 5 6 8 12 10 24 18 23 14 -8 25 -15 17 -9 26 -20 -4 -22 -23 28 29 -1 27 -2 -3 -6
right_child=4 11 20 -5 9 -7 13 16 -10 -11 -12 -13 -14 15 -16 -17 -18 -19 19 -21 21 22 -24 -25 -26 -27 -28 -29 -30 -31
leaf_value=-0.002283637922767312 0.037394866316935095 0.010234325185706439 -0.13748999359086778 -0.12278636595968032 0.0019075679594422468 -0.026693057035223691 -0.013051863533484465 -0.0084091993548671695 0.0015337546244765577 -0.010342351422305995 -0.017378320194875129 -0.026967407047504111 -0.088217945389524391 0.03309578817088088 -0.090560529727495093 -0.01392870744273722 -0.037011191300526748 -0.033114433393846454 0.10846909130193333 0.015432610907739175 -0.088934599265781608 -0.14917408764373727 -0.016509502530211863 0.044256745952302626 0.01107820162211013 -0.039122106705693584 0.0016256843868898585 -0.0022994337204981009 -0.0014915857493420503 -0.0094352674551469572
leaf_weight=4059 1310 415 490 761 1813 665 1271 969 1098 1344 362 205 208 1357 177 530 979 661 5069 893 2261 817 321 657 1317 140 553 336 810 561
leaf_count=4059 1310 415 490 761 1813 665 1271 969 1098 1344 362 205 208 1357 177 530 979 661 5069 893 2261 817 321 657 1317 140 553 336 810 561
internal_value=0 -0.00247545 -0.00307749 -0.00211028 0.00118665 0.00169016 0.00190751 -0.00156919 0.00253312 -0.000157774 0.00283937 0.000940915 -0.000700799 1.5603e-06 -0.000482087 0.000951428 -0.00309494 -0.00216617 0.00302203 0.00341544 -0.00505569 -0.00470146 -0.00633969 0.00146142 0.000534716 -0.000282779 0.0019554 0.00256045 0.000515414 -0.000143583
internal_weight=0 13930 11843 7954 18479 13444 12779 7193 9621 5035 8523 2087 4584 3158 4376 1887 2609 1630 8161 5962 3889 3399 1138 1882 3691 4199 2199 1646 1225 2374
internal_count=32409 13930 11843 7954 18479 13444 12779 7193 9621 5035 8523 2087 4584 3158 4376 1887 2609 1630 8161 5962 3889 3399 1138 1882 3691 4199 2199 1646 1225 2374
is_linear=0
shrinkage=0.1


Tree=17
num_leaves=31
num_cat=0
split_feature=1 69 68 11 42 65 93 42 44 4 1 41 76 76 6 65 23 1 44 69 69 69 1 40 65 109 1 70 45 5
split_gain=9.93365 2.65105 2.34046 2.27926 1.02717 1.07841 1.34399 0.862433 0.610263 0.662811 0.570213 0.525869 0.478252 0.470087 0.479326 0.438303 0.368629 0.347843 0.369121 0.3422 0.411615 0.334949 0.311158 0.331727 0.310601 0.304431 0.304695 0.252582 0.241002 0.233031
threshold=6937.5000000000009 886.00000000000011 1.0000000180025095e-35 1.0000000180025095e-35 0.01423778690712355 11.500000000000002 0.017470366162330199 0.34925 49064.000000000007 0.13693501244483433 1059596.0000000002 33.579101562500028 0.0038283862817086929 0.00010026090435450424 0.46934781250000007 1.5000000000000002 1.0000000180025095e-35 152500.00000000003 901.50000000000011 1.0000000180025095e-35 1.5000000000000002 196.00000000000003 1050.0000000000002 19.500000000000004 1013112.0000000001 0.0032058807106598989 82033.500000000015 14.000000000000002 0.48481487208045487 0.7924795392218712
decision_type=2 2 2 2 2 2 2 2 2 2 2 2 2 2 2 2 2 2 2 2 2 2 2 2 2 2 2 2 2 2
left_child=1 2 3 7 5 6 8 15 9 13 -7 25 27 14 17 16 -1 18 -2 -4 -21 -22 23 -9 -12 26 28 -3 -6 -25
right_child=4 12 19 -5 11 10 -8 22 -10 -11 24 -13 -14 -15 -16 -17 -18 -19 -20 20 21 -23 -24 29 -26 -27 -28 -29 -30 -31
leaf_value=-0.0037249555571165164 0.03463612835614107 0.017096464374260736 -0.12374099423178109 -0.11050772936371232 0.00094141976470609736 -0.014847410940470596 -0.023971963402612317 -0.051466126222360131 0.0035183461015648732 0.0028654138024556634 0.042593123001496737 -0.012198859702966658 -0.0242706663427537 -0.020899656053914487 0.0084127652830357398 -0.079396150850572056 -0.081504476754745536 0.10566974830993524 0.0021172145187225767 -0.080041139339203413 -0.13425667887936346 -0.014858552277190641 -0.033325618373508448 -0.0030234091533209552 -0.017241679041199377 -0.0096401359504763931 0.0065194397711110241 0.0020527572363565837 -0.020566070273017802 -0.020059694948270135
leaf_weight=4204 1653 623 490 761 1041 1371 671 308 1306 1047 1135 963 205 208 694 208 177 4454 576 2261 817 321 976 835 279 440 2359 1259 282 485
leaf_count=4204 1653 623 490 761 1041 1371 671 308 1306 1047 1135 963 205 208 694 208 177 4454 576 2261 817 321 976 835 279 440 2359 1259 282 485
internal_value=0 -0.00242422 -0.00300333 -0.00202035 0.00111227 0.00157165 0.00203139 -0.00146974 0.00232386 0.00262866 -0.000179646 -9.77446e-05 0.000862054 0.00295423 0.00308642 -0.000644901 -0.000431953 0.00334618 0.00232635 -0.00501378 -0.00465762 -0.00620876 -0.00292334 -0.00207696 0.00122932 0.000393788 0.000690869 0.00136167 -0.000523847 -0.00138743
internal_weight=0 13930 11843 7954 18479 13394 10609 7193 9938 8632 2785 5085 2087 7585 7377 4589 4381 6683 2229 3889 3399 1138 2604 1628 1414 4122 3682 1882 1323 1320
internal_count=32409 13930 11843 7954 18479 13394 10609 7193 9938 8632 2785 5085 2087 7585 7377 4589 4381 6683 2229 3889 3399 1138 2604 1628 1414 4122 3682 1882 1323 1320
is_linear=0
shrinkage=0.1


Tree=18
num_leaves=31
num_cat=0
split_feature=1 69 68 11 1 93 44 42 44 65 42 41 69 65 42 69 6 65 4 23 1 1 5 72 76 75 70 95 78 75
split_gain=9.24586 2.38664 2.30133 2.36478 0.954988 0.946056 1.02908 0.753998 0.620215 0.568069 0.499327 0.4183 0.394818 0.388278 0.392257 0.379315 0.366847 0.364995 0.352918 0.329111 0.321697 0.31874 0.304497 0.284072 0.280587 0.279625 0.25442 0.242127 0.325694 0.29403
threshold=6937.5000000000009 1011.5000000000001 1.0000000180025095e-35 1.0000000180025095e-35 342336.00000000006 0.045391373624832476 83071.500000000015 0.43812699417981948 1550.5000000000002 1994.5000000000002 0.021741560506194035 23.061523437500018 63297.500000000007 1.5000000000000002 0.006691873466669932 1.0000000180025095e-35 0.036220587212322485 1.5000000000000002 0.22062927544732472 1.0000000180025095e-35 974422.50000000012 1050.0000000000002 0.57608887332080949 1.0000000180025095e-35 0.0038283862817086929 0.020753409724580629 30.119628906249975 25880.500000000004 391608.50000000006 0.12224966494801785
decision_type=2 2 2 2 2 2 2 2 2 2 2 2 2 2 2 2 2 2 2 2 2 2 2 2 2 2 2 2 2 2
left_child=1 2 3 7 8 6 9 17 13 10 18 -12 24 14 16 -4 -2 19 25 27 -8 22 -9 -17 -3 -6 -14 28 -1 -29
right_child=4 12 15 -5 5 -7 20 21 -10 -11 11 -13 26 -15 -16 23 -18 -19 -20 -21 -22 -23 -24 -25 -26 -27 -28 29 -30 -31
leaf_value=-0.012281094748867362 0.027504606435956092 0.00066187566282280849 -0.11136689480860298 -0.099456956427341051 0.088803500906064772 -0.020843779112533767 -0.01692813212677571 -0.006759531997209401 -0.0095691239819213798 0.0046544819069048058 0.013978634657040346 -0.0082937751216814355 0.046594544071501078 -0.013591374802425804 0.00062176864142102781 -0.071244140578622966 -0.0062470781331597893 -0.071456535765514681 0.0077907220814502414 -0.073354029079271049 0.0058719301441648502 -0.031979654192986831 -0.02798026112820029 -0.16316289728293099 -0.02420192113244948 -0.0017763292874331427 0.00095203982741018942 0.057144798637509098 0.30476790283524124 -0.010464191673425917
leaf_weight=3114 2191 1044 490 761 5205 644 545 955 1725 1227 750 425 562 567 2751 3202 532 208 549 177 1139 895 585 239 142 229 297 400 570 289
leaf_count=3114 2191 1044 490 761 5205 644 545 955 1725 1227 750 425 562 567 2751 3202 532 208 549 177 1139 895 585 239 142 229 297 400 570 289
internal_value=0 -0.00235891 -0.00290186 -0.00192362 0.00105296 0.00166503 0.00190269 -0.00136278 0.000208618 0.00235574 0.00269652 0.000811844 0.00079661 0.000686161 0.000944183 -0.00488125 0.00179504 -0.000630344 0.00306665 -0.000443079 -0.000353167 -0.00279395 -0.00192174 -0.00451057 -0.000385904 0.00331077 0.00242928 -0.000271974 -0.000593771 0.00144864
internal_weight=0 13930 11885 7954 18479 10713 10069 7193 7766 8385 7158 1175 2045 6041 5474 3931 2723 4758 5983 4550 1684 2435 1540 3441 1186 5434 859 4373 3684 689
internal_count=32409 13930 11885 7954 18479 10713 10069 7193 7766 8385 7158 1175 2045 6041 5474 3931 2723 4758 5983 4550 1684 2435 1540 3441 1186 5434 859 4373 3684 689
is_linear=0
shrinkage=0.1


Tree=19
num_leaves=31
num_cat=0
split_feature=1 69 68 11 1 92 46 40 109 65 76 1 78 25 1 44 78 69 65 69 69 65 40 41 74 6 44 91 4 70
split_gain=8.37078 2.35784 2.31577 2.41829 0.981629 0.930133 0.889348 0.663154 0.455943 0.448089 0.429173 0.387973 0.383957 0.477607 0.397202 0.485646 0.483032 0.365534 0.326305 0.304465 0.410552 0.304098 0.276273 0.272097 0.26617 0.26223 0.261501 0.315666 0.298111 0.25737
threshold=4097.0000000000009 630.50000000000011 1.0000000180025095e-35 1.0000000180025095e-35 1059596.0000000002 28.004394531249996 0.040361066392353533 890.50000000000011 0.03240887027664302 84428.000000000015 0.0038283862817086929 82033.500000000015 391608.50000000006 1.0000000180025095e-35 36.000000000000007 19.500000000000004 9.5000000000000018 1.0000000180025095e-35 1.5000000000000002 1.5000000000000002 130.50000000000003 299.50000000000006 1415840.0000000002 1.0000000180025095e-35 23.175781250000011 0.46934781250000007 32829.500000000007 1247647.0000000002 0.22062927544732472 14.000000000000002
decision_type=2 2 2 2 2 2 2 2 2 2 2 2 2 2 2 2 2 2 2 2 2 2 2 2 2 2 2 2 2 2
left_child=1 2 3 7 6 9 8 12 11 22 29 18 13 14 16 21 -1 -4 23 -19 -21 -16 26 -2 -15 -13 27 28 -6 -3
right_child=4 10 17 -5 5 -7 -8 -9 -10 -11 -12 25 -14 24 15 -17 -18 19 -20 20 -22 -23 -24 -25 -26 -27 -28 -29 -30 -31
leaf_value=-0.044670629969559533 0.025876988098384859 0.014655945018096795 -0.10023020532774272 -0.089511260784606972 0.092030872179839213 -0.037471826433213805 -0.0072972112338039359 -0.02722610717121654 -0.010292647347021245 -0.0086896396256214824 -0.02232284492071095 0.013732620558463894 0.27429111255171712 0.034957431488295401 0.0023675815314806673 -0.036142399356248592 -0.023949565678968377 -0.064912611347420865 -0.0156231654560397 -0.12203665598507847 -0.01477175387021017 -0.098763124086546847 -0.023549356302241621 -0.00029272319793847149 -0.026779238248149186 -0.0066179297361614433 0.014437470343840887 -0.004407365678819275 0.0059474585202814014 0.0015997237843105696
leaf_weight=1272 831 655 490 761 3927 273 2990 966 448 510 220 4830 570 517 1912 610 703 2261 306 737 304 71 112 2249 181 447 1296 290 361 1309
leaf_count=1272 831 655 490 761 3927 273 2990 966 448 510 220 4830 570 517 1912 610 703 2261 306 737 304 71 112 2249 181 447 1296 290 361 1309
internal_value=0 -0.00231111 -0.00288987 -0.00187866 0.00094753 0.00191188 0.000408095 -0.00128055 0.000899204 0.00215219 0.000697948 0.00106007 -0.000878832 -0.00114569 -0.00151796 -0.000704148 -0.00258643 -0.00490669 0.000224632 -0.00452847 -0.00594363 5.48879e-05 0.00239462 0.000534056 0.00129061 0.00159614 0.00248842 0.00284343 0.00305938 0.00116712
internal_weight=0 13539 11355 7563 18870 6769 12101 6802 9111 6496 2184 8663 5836 5266 4568 2593 1975 3792 3386 3302 1041 1983 5986 3080 698 5277 5874 4578 4288 1964
internal_count=32409 13539 11355 7563 18870 6769 12101 6802 9111 6496 2184 8663 5836 5266 4568 2593 1975 3792 3386 3302 1041 1983 5986 3080 698 5277 5874 4578 4288 1964
is_linear=0
shrinkage=0.1


Tree=20
num_leaves=31
num_cat=0
split_feature=1 69 68 11 1 93 46 40 67 42 76 69 78 27 109 66 65 41 4 1 78 44 72 73 65 4 3 69 41 75
split_gain=7.48161 2.09153 2.33865 2.55021 0.87137 0.757231 0.704627 0.561052 0.522075 0.462038 0.369389 0.360649 0.345194 0.404196 0.34087 0.320259 0.31088 0.365674 0.315502 0.304223 0.402346 0.362779 0.289136 0.282036 0.279013 0.267038 0.262658 0.247032 0.245518 0.244708
threshold=4097.0000000000009 630.50000000000011 1.0000000180025095e-35 1.0000000180025095e-35 838531.00000000012 0.67899965647200144 0.040361066392353533 890.50000000000011 0.44021040369844572 0.54566984229506443 8.2914807560417412e-06 1.0000000180025095e-35 391608.50000000006 4.2126666666666671e-05 0.020763845037082701 25.01953125 6.5000000000000009 17.376226973241902 0.012046864261696716 26.000000000000004 7.5000000000000009 25.500000000000004 1.0000000180025095e-35 763117.00000000012 18.500000000000004 0.22062927544732472 0.94943833233967923 99883.000000000015 10.000000000000002 0.053482031874897688
decision_type=2 2 2 2 2 2 2 2 2 2 2 2 2 2 2 2 2 2 2 2 2 2 2 2 2 2 2 2 2 2
left_child=1 2 3 7 6 8 14 12 9 23 27 -4 13 19 16 -10 17 18 -2 20 26 24 -13 25 -21 -6 -1 -3 -11 -15
right_child=4 10 11 -5 5 -7 -8 -9 15 28 -12 22 -14 29 -16 -17 -18 -19 -20 21 -22 -23 -24 -25 -26 -27 -28 -29 -30 -31
leaf_value=-0.064122214973145839 0.015446613758777162 0.0013531375517803923 -0.090207184794968504 -0.080560134706146341 0.063076236194765309 -0.027280311593485963 -0.0078807759380605802 -0.024503496454094886 0.021296242203705164 0.031080778455774196 -0.015401273213693402 -0.05819189617215148 0.24686200129654523 0.049525495119557665 -0.0082670623055935977 -0.015825749675793335 -0.0078632781646568624 0.0004362278431688793 -0.0050109218350083756 0.001661118820646479 -0.020866111094878015 -0.037112982590504731 -0.15741248846491906 -0.089277628031135592 -0.073407551215091613 0.0021134559915019224 -0.01018080270898274 0.039295092188559269 -0.017347684849594102 -0.007992390334850441
leaf_weight=814 3925 1245 490 761 5495 392 2518 966 891 83 322 3087 570 390 428 676 778 2389 552 2019 711 551 215 80 105 444 372 617 219 304
leaf_count=814 3925 1245 490 761 5495 392 2518 966 891 83 322 3087 570 390 428 676 778 2389 552 2019 711 551 215 80 105 444 372 617 219 304
internal_value=0 -0.00220588 -0.00275097 -0.00173478 0.000874836 0.00164334 0.000273964 -0.00112057 0.00185653 0.00226159 0.000628167 -0.00477773 -0.000751071 -0.0010041 0.000729548 0.000222569 0.000883316 0.00109799 0.00163109 -0.00134544 -0.0023141 -0.000658503 -0.00440205 0.0024531 -6.53628e-05 0.00253255 -0.0034417 0.00116899 -0.00155525 0.00124459
internal_weight=0 13539 11355 7563 18870 8280 10590 6802 7888 6321 2184 3792 5836 5266 8072 1567 7644 6866 4477 4572 1897 2675 3302 6019 2124 5939 1186 1862 302 694
internal_count=32409 13539 11355 7563 18870 8280 10590 6802 7888 6321 2184 3792 5836 5266 8072 1567 7644 6866 4477 4572 1897 2675 3302 6019 2124 5939 1186 1862 302 694
is_linear=0
shrinkage=0.1


Tree=21
num_leaves=31
num_cat=0
split_feature=1 11 70 69 69 3 68 1 92 44 42 76 41 65 65 44 5 1 4 65 6 1 91 42 78 25 1 78 43 96
split_gain=6.5818 2.12421 1.5926 2.23994 0.874619 0.858058 0.67945 0.600763 0.726516 0.467441 0.454377 0.418628 0.400972 0.360603 0.333362 0.342587 0.304227 0.35184 0.288093 0.281367 0.269459 0.26932 0.25381 0.235239 0.223339 0.242557 0.269697 0.263324 0.389552 0.205641
threshold=5135.0000000000009 1.0000000180025095e-35 14.000000000000002 130.50000000000003 130.50000000000003 0.3065511219413139 1.0000000180025095e-35 1153732.0000000002 28.004394531249996 125319.00000000001 0.44444980560757563 0.0046913526168077492 20.677517361111125 7.5000000000000009 903872.50000000012 86316.000000000015 0.57608887332080949 234.50000000000003 0.13693501244483433 1.5000000000000002 0.48581971897862536 226428.00000000003 10830845.500000002 0.0057775503197983425 391608.50000000006 1.0000000180025095e-35 57.000000000000007 7.5000000000000009 1.0000000180025095e-35 32.00439453125
decision_type=2 2 2 2 2 2 2 2 2 2 2 2 2 2 2 2 2 2 2 2 2 2 2 2 2 2 2 2 2 2
left_child=1 2 4 -4 6 18 10 9 14 12 19 -5 13 21 15 22 17 -12 20 24 23 -7 -9 -2 25 26 27 28 -1 -27
right_child=5 -3 3 11 -6 7 -8 8 -10 -11 16 -13 -14 -15 -16 -17 -18 -19 -20 -21 -22 -23 -24 -25 -26 29 -28 -29 -30 -31
leaf_value=-0.057259658897722866 0.056581593806937391 -0.072504121235531654 -0.059480441235112029 0.00038110088314482484 0.010853758454712193 0.002238475539199669 -0.053911460064457732 0.050235034412191487 -0.038002113424000686 -0.015645903223301616 0.00092672892134579863 -0.030749648050434078 -0.0065188022287919981 -0.0093891191540038232 -0.013667941768873249 -0.00014494931681348079 -0.023813076011718694 -0.022847505571801464 0.0024807047621084877 -0.066128862189928125 -0.00031879776847176799 0.015207825452228008 -0.02680600357866858 0.0092488070686343356 0.22217580116689073 0.032260927372951186 1.8296476709167565e-05 -0.018779499985390302 0.0049659192994852223 -0.019213724073814123
leaf_weight=625 2765 761 2608 1472 772 3368 880 3392 232 761 808 244 1768 1162 275 831 1024 585 779 192 448 1793 64 945 570 480 1629 711 247 218
leaf_count=625 2765 761 2608 1472 772 3368 880 3392 232 761 808 244 1768 1162 275 831 1024 585 779 192 448 1793 64 945 570 480 1629 711 247 218
internal_value=0 -0.00208885 -0.0017897 -0.00335947 -0.00101317 0.000792519 -0.00132451 0.000383796 0.00128541 -0.000104493 -0.000999176 -0.000553583 0.000118368 0.000490618 0.00156302 0.00177953 -0.00211226 -0.00115035 0.00192224 -0.000423335 0.00225289 0.000848953 0.00221788 0.00253263 -0.000262679 -0.000532262 -0.000899424 -0.00182897 -0.00299358 0.00115732
internal_weight=0 13826 13065 4324 8741 18583 7969 13646 4794 8852 7089 1716 8091 6323 4562 4287 2417 1393 4937 4672 4158 5161 3456 3710 4480 3910 3212 1583 872 698
internal_count=32409 13826 13065 4324 8741 18583 7969 13646 4794 8852 7089 1716 8091 6323 4562 4287 2417 1393 4937 4672 4158 5161 3456 3710 4480 3910 3212 1583 872 698
is_linear=0
shrinkage=0.1


Tree=22
num_leaves=31
num_cat=0
split_feature=1 11 70 69 42 65 90 69 68 6 44 4 76 1 44 41 76 1 78 25 69 46 65 75 45 46 41 40 3 4
split_gain=5.9278 1.86312 1.46543 2.17845 1.0172 0.791044 0.926034 0.765509 0.669164 0.568336 0.593513 0.503067 0.496854 0.470261 0.459173 0.441375 0.421794 0.400344 0.325576 0.336141 0.234709 0.232438 0.226813 0.2231 0.205772 0.196631 0.190511 0.222015 0.206254 0.190148
threshold=3354.0000000000005 1.0000000180025095e-35 14.000000000000002 88.000000000000014 0.01423778690712355 1.5000000000000002 1.0000000180025095e-35 100.00000000000001 1.0000000180025095e-35 0.39474626308808269 30000.000000000004 0.13693501244483433 0.00010026090435450424 3449506.5000000005 55.500000000000007 33.579101562500028 0.0046913526168077492 63445.000000000007 391608.50000000006 1.0000000180025095e-35 1.5000000000000002 0.15990355017240052 5514998.0000000009 0.17271851371152 0.11206526314681488 47.229672989832586 10.000000000000002 188943.00000000003 0.84056138412732995 1.0242703514397908
decision_type=2 2 2 2 2 2 2 2 2 2 2 2 2 2 2 2 2 2 2 2 2 2 2 2 2 2 2 2 2 2
left_child=1 2 7 20 5 6 9 8 14 10 11 12 17 21 18 26 -5 24 19 -1 -4 -7 -15 -21 -2 -12 27 28 -6 -13
right_child=4 -3 3 16 15 13 -8 -9 -10 -11 25 29 -14 22 -16 -17 -18 -19 -20 23 -22 -23 -24 -25 -26 -27 -28 -29 -30 -31
leaf_value=-0.012275362538347068 0.026462807377714628 -0.065253709111978433 -0.050205599626249334 0.00044825388527947041 0.0074435057741109034 -0.0049577864282845498 -0.017749268677602716 0.0097230859584154679 -0.049094616731351876 -0.006868354974705327 0.0026669850820361775 0.0065032309260324439 -0.02799921750390837 0.03670792037339226 -0.053059588815890991 -0.013073302337940263 -0.028200690897673297 0.065977744632116503 0.19995822105020161 0.040013806910834053 -0.11317224392001411 -0.03320720949854241 -0.020351117525752471 -0.012364915850440639 0.0039203286593703984 -0.46519119046857327 -0.0026650243044656465 0.017142403885022261 -0.0026527658484937437 -0.025089383637459408
leaf_weight=4501 612 761 2094 1512 865 1487 686 789 863 912 1411 782 197 896 462 1104 254 4930 570 413 464 575 135 285 1016 36 2403 287 968 139
leaf_count=4501 612 761 2094 1512 865 1487 686 789 863 912 1411 782 197 896 462 1104 254 4930 570 413 464 575 135 285 1016 36 2403 287 968 139
internal_value=0 -0.00208551 -0.00178624 -0.00326562 0.000674962 0.00113662 0.00154308 -0.000974761 -0.0013034 0.00178607 0.00202402 0.00237421 0.00267314 -0.00027224 -0.000941953 -0.00045839 -0.000564241 0.00282178 -0.000699024 -0.000947768 -0.00513061 -0.00114414 0.00147155 0.0010941 0.00146213 0.000166299 -2.08304e-05 0.000670134 0.000265202 0.000181771
internal_weight=0 12968 12207 4324 19441 13814 10721 7883 7094 10035 9123 7676 6755 3093 6231 5627 1766 6558 5769 5199 2558 2062 1031 698 1628 1447 4523 2120 1833 921
internal_count=32409 12968 12207 4324 19441 13814 10721 7883 7094 10035 9123 7676 6755 3093 6231 5627 1766 6558 5769 5199 2558 2062 1031 698 1628 1447 4523 2120 1833 921
is_linear=0
shrinkage=0.1


Tree=23
num_leaves=31
num_cat=0
split_feature=1 70 69 11 64 69 3 92 44 46 68 69 41 1 65 76 40 65 93 23 4 109 72 6 40 1 66 6 46 73
split_gain=5.13263 1.46512 1.71187 1.22871 1.29767 0.74605 0.633271 0.478988 0.524446 0.446618 0.496371 0.916566 0.405184 0.403838 0.338398 0.331935 0.291501 0.287141 0.270416 0.237893 0.241856 0.212477 0.20993 0.207001 0.195827 0.208419 0.186323 0.182612 0.182473 0.18049
threshold=44422.000000000007 16.316406250000011 112.00000000000001 1.0000000180025095e-35 1.0000000180025095e-35 57546.500000000007 0.14568962522012774 33.500000000000007 49064.000000000007 0.90031652119869932 1.0000000180025095e-35 69.500000000000014 16.289473684210531 566558.50000000012 7110.5000000000009 0.0038283862817086929 997404.50000000012 636.00000000000011 0.84673566565742542 1.0000000180025095e-35 0.012046864261696716 0.0032058807106598989 1.0000000180025095e-35 0.41558557127535772 389.00000000000006 16.500000000000004 14.000000000000002 0.13362619749791674 91.313184654170726 19355.500000000004
decision_type=2 2 2 2 2 2 2 2 2 2 2 2 2 2 2 2 2 2 2 2 2 2 2 2 2 2 2 2 2 2
left_child=1 3 22 5 -5 9 27 8 13 10 12 -12 17 21 16 -4 18 19 23 20 -1 -8 -3 29 25 -14 -16 -2 -10 -15
right_child=6 2 15 4 -6 -7 7 -9 28 -11 11 -13 24 14 26 -17 -18 -19 -20 -21 -22 -23 -24 -25 -26 -27 -28 -29 -30 -31
leaf_value=0.0016434236189830642 0.039641151097374566 -0.045293853903126374 -0.00041980809174564372 -0.060176111180516939 0.0012178173473150979 0.047497181312920134 0.0027214112847477878 -0.032142398797824968 -0.0036645733010836068 -0.060152813227708539 -0.046349476003956447 0.0020047702788319913 -0.061466726394116128 0.04251908964615865 0.019204632955580794 -0.024854614155623268 -0.011281807238066932 -0.018730975183026289 -0.020161061448618157 -0.049275317072529037 -0.017448564640791985 -0.0065542029782442064 -0.1544594431924704 -0.012606329300130526 -0.019943525649252083 -0.0024429163744521531 -0.013295599304070295 0.0085452415169545055 -0.47333596190840094 -0.034494180856331269
leaf_weight=6346 2532 2049 1274 553 208 358 4164 245 2417 601 1149 695 99 4148 261 241 186 221 147 219 330 335 210 206 1014 974 514 591 38 84
leaf_count=6346 2532 2049 1274 553 208 358 4164 245 2417 601 1149 695 99 4148 261 241 186 221 147 219 330 335 210 206 1014 974 514 591 38 84
internal_value=0 -0.00161185 -0.00334286 -0.00110016 -0.00499677 -0.00085317 0.000905596 0.00059288 0.000678706 -0.000991368 -0.000846938 -0.00234443 -0.000546886 0.000998924 0.00157 -0.000742189 0.00188483 -0.000187546 0.00204226 -7.38207e-05 3.25661e-05 0.000294945 -0.00508701 0.00218203 -0.00177212 -0.000830457 -0.000368103 0.00218179 -0.000631515 0.00233271
internal_weight=0 16541 3774 12767 761 12006 15868 12745 12500 11648 11047 1844 9203 10045 5546 1515 4771 7116 4585 6895 6676 4499 2259 4438 2087 1073 775 3123 2455 4232
internal_count=32409 16541 3774 12767 761 12006 15868 12745 12500 11648 11047 1844 9203 10045 5546 1515 4771 7116 4585 6895 6676 4499 2259 4438 2087 1073 775 3123 2455 4232
is_linear=0
shrinkage=0.1


Tree=24
num_leaves=31
num_cat=0
split_feature=1 69 68 11 64 42 67 92 4 76 69 6 44 1 41 44 66 72 69 78 69 46 25 41 96 1 1 1 78 77
split_gain=4.68356 1.36834 2.23132 1.18174 1.29767 0.854607 0.68354 0.803525 0.532113 0.512678 0.443904 0.40483 0.45633 0.419149 0.390825 0.388753 0.372076 0.365508 0.29703 0.292752 0.284553 0.241464 0.226248 0.220259 0.219549 0.210769 0.210131 0.203689 0.280817 0.221204
threshold=2984.5000000000005 630.50000000000011 1.0000000180025095e-35 1.0000000180025095e-35 1.0000000180025095e-35 0.0092627992237319275 0.21387306919329149 14.000000000000002 0.066073093366286861 6.6381352104608008e-06 61.500000000000007 0.13946288312149255 553.00000000000011 1612100.0000000002 10.000000000000002 55.500000000000007 25.01953125 1.0000000180025095e-35 112578.00000000001 391608.50000000006 1.5000000000000002 0.0027343058726745435 1.0000000180025095e-35 45.579101562500028 20.155273437500011 566558.50000000012 373155.00000000006 26.000000000000004 7.5000000000000009 1.0000000180025095e-35
decision_type=2 2 2 2 2 2 2 2 2 2 2 2 2 2 2 2 2 2 2 2 2 2 2 2 2 2 2 2 2 2
left_child=1 2 3 15 -5 6 7 8 9 11 20 12 26 21 25 19 -8 -12 -3 22 -4 -14 27 -16 -24 -7 -2 28 29 -1
right_child=5 18 10 4 -6 14 16 -9 -10 -11 17 -13 13 -15 23 -17 -18 -19 -20 -21 -22 -23 24 -25 -26 -27 -28 -29 -30 -31
leaf_value=-0.018175456919827582 0.021380998701240373 -0.001304372669668652 -0.039846037230770293 -0.054158500062465191 0.0010960356125835347 0.00085648274600167449 0.0060239962215316474 -0.019076667081964871 -0.0034925010096216627 -0.022983375206806756 0.00014374992728143356 0.00066254631034610165 -0.014451359168007372 0.045429956345890338 -0.003552752328328879 -0.046744189947567349 -0.014048003132682752 -0.040155464843332392 0.032016292884765818 0.17979805658328304 -0.10333159841687484 0.0089651461364383071 0.044223495391043956 -0.020173646590940921 -0.0052131417222245346 0.023572770173905157 0.089496432191449315 -0.0036411270088446916 -0.015838356094914907 -0.13562225262329797
leaf_weight=943 2048 1527 2751 553 208 1865 1818 562 1205 371 362 932 616 1074 3112 461 1320 83 657 570 596 938 305 507 393 308 2784 2582 711 247
leaf_count=943 2048 1527 2751 553 208 1865 1818 562 1205 371 362 932 616 1074 3112 461 1320 83 657 570 596 938 305 507 393 308 2784 2582 711 247
internal_value=0 -0.00187603 -0.00233905 -0.00127736 -0.00499677 0.00057829 0.00100968 0.00139573 0.00160315 0.00187409 -0.00429136 0.00203491 0.0022804 0.00121988 -0.000439715 -0.000821713 -0.000285756 -0.00132408 0.000406205 -0.000597738 -0.00468588 0.000169979 -0.000834389 -0.00107624 0.00084033 0.000620371 0.0028572 -0.00109514 -0.00188072 -0.00282018
internal_weight=0 12949 10765 6973 761 19460 13668 10530 9968 8763 3792 8392 7460 2628 5792 6212 3138 445 2184 5751 3347 1554 5181 3619 698 2173 4832 4483 1901 1190
internal_count=32409 12949 10765 6973 761 19460 13668 10530 9968 8763 3792 8392 7460 2628 5792 6212 3138 445 2184 5751 3347 1554 5181 3619 698 2173 4832 4483 1901 1190
is_linear=0
shrinkage=0.1


Tree=25
num_leaves=31
num_cat=0
split_feature=1 69 68 11 64 42 65 90 69 75 4 45 76 6 1 44 41 69 44 65 1 69 78 1 41 1 46 40 67 41
split_gain=4.31132 1.33369 2.04841 1.29185 1.16544 0.757826 0.642221 0.73733 0.490146 0.470463 0.516332 0.555635 0.44561 0.401825 0.372151 0.355911 0.348406 0.321689 0.28277 0.279703 0.265099 0.264873 0.244645 0.233789 0.207435 0.193301 0.198178 0.191751 0.185233 0.18472
threshold=2457.5000000000005 630.50000000000011 1.0000000180025095e-35 1.0000000180025095e-35 1.0000000180025095e-35 0.0092627992237319275 11.500000000000002 1.0000000180025095e-35 41.500000000000007 0.75207649141664978 0.020421640162805666 0.35379440867906536 0.027169701594536393 0.12383216170904159 3449506.5000000005 45.500000000000007 10.000000000000002 1.5000000000000002 684533.50000000012 1.5000000000000002 1612100.0000000002 176888.00000000003 391608.50000000006 4683900.0000000009 45.579101562500028 1440017.5000000002 47.229672989832586 158702.50000000003 0.14674397016196764 1.0000000180025095e-35
decision_type=2 2 2 2 2 2 2 2 2 2 2 2 2 2 2 2 2 2 2 2 2 2 2 2 2 2 2 2 2 2
left_child=1 2 3 15 -5 6 7 9 17 10 11 13 -10 29 -8 19 27 -4 20 22 25 -3 -1 -16 -18 26 -13 -7 -25 -2
right_child=5 21 8 4 -6 16 14 -9 12 -11 -12 18 -14 -15 23 -17 24 -19 -20 -21 -22 -23 -24 28 -26 -27 -28 -29 -30 -31
leaf_value=-0.0063746557463000286 0.08277970748676787 -0.0010742073177777201 -0.035861433507693267 -0.048742650056218653 0.00098643205132518128 0.00081127608624669283 -0.010520536812315129 -0.016487791544046716 0.00020760614542219004 -0.058334199555032745 -0.0029337641967455141 0.0089713779044267028 -0.038276777299123668 0.0066035977196936104 0.056840003506975739 -0.048101235892720598 -0.003418721307565065 -0.10462013781600366 -0.015438610598366154 -0.12911279108238638 0.042022542652464523 0.036671865699710794 0.16181825092495467 0.069379054264948087 -0.018548229312947483 -0.027972042177647441 -0.30007310892579897 0.012822621787558575 -0.0098934566709782956 0.029301756904693832
leaf_weight=4688 2276 1629 2751 553 208 1980 1942 686 424 209 1238 2812 103 696 306 405 3218 514 259 86 1325 555 570 174 519 152 37 310 465 1319
leaf_count=4688 2276 1629 2751 553 208 1980 1942 686 424 209 1238 2812 103 696 306 405 3218 514 259 86 1325 555 570 174 519 152 37 310 465 1319
internal_value=0 -0.00185774 -0.0023336 -0.00125741 -0.00512926 0.000512264 0.000918439 0.00126657 -0.00418118 0.00147754 0.00157459 0.00184143 -0.00135132 0.00265928 -0.000409102 -0.000744886 -0.000424223 -0.00463795 0.00107601 -0.000528281 0.00126817 0.000386915 -0.000435757 0.00121849 -0.0010194 0.000748012 0.00093339 0.000547038 0.000130043 0.00308507
internal_weight=0 12486 10302 6510 761 19923 13896 11009 3792 10323 10114 8876 527 4291 2887 5749 6027 3265 4585 5344 4326 2184 5258 945 3737 3001 2849 2290 639 3595
internal_count=32409 12486 10302 6510 761 19923 13896 11009 3792 10323 10114 8876 527 4291 2887 5749 6027 3265 4585 5344 4326 2184 5258 945 3737 3001 2849 2290 639 3595
is_linear=0
shrinkage=0.1


Tree=26
num_leaves=31
num_cat=0
split_feature=1 70 69 11 64 44 91 42 69 66 76 6 46 68 69 41 40 65 4 75 72 65 4 46 75 91 69 41 1 46
split_gain=3.9272 1.45158 1.76622 1.44661 1.16544 0.611847 0.563109 0.510374 0.500489 0.469493 0.449789 0.365624 0.349924 0.300298 0.584964 0.348738 0.281244 0.266069 0.256964 0.291384 0.214432 0.212887 0.212021 0.183632 0.158642 0.155411 0.153594 0.149608 0.150732 0.144217
threshold=70885.000000000015 14.000000000000002 30.500000000000004 1.0000000180025095e-35 1.0000000180025095e-35 47852.000000000007 3158.5000000000005 0.0031943284527944926 48074.000000000007 14.000000000000002 0.022516603182572256 0.4414823457792208 0.60800030193236732 1.0000000180025095e-35 41.500000000000007 20.000488281250011 51.500000000000007 566.50000000000011 0.46386378317584182 0.0056252413844783316 1.0000000180025095e-35 28059.000000000004 0.0052036184223541058 91.313184654170726 0.85721815096217557 10938342.500000002 5940.5000000000009 10.000000000000002 352636.00000000006 8.4071524451993724
decision_type=2 2 2 2 2 2 2 2 2 2 2 2 2 2 2 2 2 2 2 2 2 2 2 2 2 2 2 2 2 2
left_child=1 3 20 8 -5 6 7 9 12 11 -4 18 13 15 -15 17 29 22 19 -2 -3 -11 24 -7 -1 -8 -12 28 -9 -14
right_child=5 2 10 4 -6 23 25 27 -10 21 26 -13 16 14 -16 -17 -18 -19 -20 -21 -22 -23 -24 -25 -26 -27 -28 -29 -30 -31
leaf_value=0.0010522886967070377 0.049900534387949239 -0.033434905673586535 -0.00036330936100643642 -0.043868385050596717 0.00088778884619262761 -0.0029392210183168291 -0.0066605116450482171 0.00073014847762209456 0.034835136886168884 0.013257714975783586 -0.033015727071652637 -0.0028913910824897473 -0.0023432414648425492 -0.033133787776552917 0.0020221271005778974 -0.01292546342712555 -0.062923389484667067 -0.016550247151835864 0.0028176414372161674 -0.0078212930412103528 -0.13744927874639856 -0.0094072123659863401 -0.014110579589417683 -0.39506626969734565 -0.044422060644805583 -0.041621369732687444 -0.0092219680077569432 -0.0017167120607268771 0.018036479510734085 -0.15258782167717372
leaf_weight=7666 4573 2244 1652 553 208 2513 546 674 309 1962 159 586 374 802 541 1679 312 263 501 259 180 565 423 38 169 134 89 1922 446 67
leaf_count=7666 4573 2244 1652 553 208 2513 546 674 309 1962 159 586 374 802 541 1679 312 263 501 259 180 565 423 38 169 134 89 1922 446 67
internal_value=0 -0.00141046 -0.00300309 -0.000895238 -0.00512926 0.000800446 0.00109565 0.00126116 -0.000639618 0.00166118 -0.000720288 0.00214833 -0.000739508 -0.000603256 -0.00200891 -0.000418178 -0.00282816 -0.000158622 0.00240886 0.00263238 -0.00479242 0.000520111 -5.89002e-05 -0.000607664 5.88341e-05 -0.00170046 -0.00469135 0.000150536 0.00106922 -0.00120261
internal_weight=0 17690 4324 13366 761 14719 12168 11488 12605 8446 1900 5919 12296 11543 1343 10200 753 8521 5333 4832 2424 2527 8258 2551 7835 680 248 3042 1120 441
internal_count=32409 17690 4324 13366 761 14719 12168 11488 12605 8446 1900 5919 12296 11543 1343 10200 753 8521 5333 4832 2424 2527 8258 2551 7835 680 248 3042 1120 441
is_linear=0
shrinkage=0.1


Tree=27
num_leaves=31
num_cat=0
split_feature=1 69 68 11 64 1 91 69 76 46 3 78 41 65 72 44 3 25 4 70 69 72 65 8 65 44 1 78 16 44
split_gain=3.73769 1.14401 1.88781 1.45746 1.00591 0.655266 0.503732 0.458217 0.399481 0.396277 0.339815 0.296053 0.289322 0.514221 0.268757 0.251479 0.251165 0.243826 0.237074 0.234193 0.268963 0.218192 0.215441 0.205308 0.201677 0.198888 0.217764 0.383573 0.198882 0.197729
threshold=2457.5000000000005 597.00000000000011 1.0000000180025095e-35 1.0000000180025095e-35 1.0000000180025095e-35 1059596.0000000002 3622379.0000000005 33.500000000000007 0.027169701594536393 8.4071524451993724 0.95996505704186907 391608.50000000006 6.0000000000000009 1.5000000000000002 1.0000000180025095e-35 99999.500000000015 0.2956192777777778 1.0000000180025095e-35 0.95509676917329489 23.000000000000004 112578.00000000001 1.0000000180025095e-35 983825.00000000012 0.0042430615392660669 1.5000000000000002 45.500000000000007 16.500000000000004 6.5000000000000009 391.50000000000006 25970.500000000004
decision_type=2 2 2 2 2 2 2 2 2 2 2 2 2 2 2 2 2 2 2 2 2 2 2 2 2 2 2 2 2 2
left_child=1 2 3 11 -5 9 10 14 -9 12 18 17 13 21 -4 22 -14 24 -7 20 -3 23 -12 29 25 26 27 28 -1 -2
right_child=5 19 7 4 -6 6 -8 8 -10 -11 15 -13 16 -15 -16 -17 -18 -19 -20 -21 -22 -23 -24 -25 -26 -27 -28 -29 -30 -31
leaf_value=-0.076347163608238067 0.012491434512907774 0.0012433662781337063 -0.029884782015255063 -0.039481546545536976 0.0007990099615733826 0.045663921635672372 -0.01956974422736231 -0.00028887882702761659 -0.032733444904560649 -0.11192129561420289 0.023743176845188785 0.14553119696278857 0.0051192209248338118 -0.0084150614059812067 -0.12523426778451921 -0.0084783537749125067 -0.0042112999404466224 0.012547653716967489 -0.0079268558461688347 -0.0030628897515343925 0.087969550748821498 -0.017565336505291639 -0.010831794168938558 -0.0043144335424816658 -0.11470512474868322 -0.038485195405666417 -0.0019783874267497838 -0.011950516333499018 0.078914955631097433 -0.0010128961298711658
leaf_weight=616 3979 765 3024 553 208 3437 379 454 106 186 1870 570 1808 1544 195 693 4290 698 205 1118 314 274 185 501 94 397 2615 720 39 572
leaf_count=616 3979 765 3024 553 208 3437 379 454 106 186 1870 570 1808 1544 195 693 4290 698 205 1118 314 274 185 501 94 397 2615 720 39 572
internal_value=0 -0.00177673 -0.00221905 -0.00118702 -0.00529957 0.000429978 0.00122944 -0.0039969 -0.00135684 1.85772e-05 0.00143953 -0.000642638 8.43113e-05 0.000529321 -0.00445618 0.000600008 -0.000417036 -0.000880707 0.00207298 0.000294719 0.00134567 0.000995143 0.00115553 0.0011442 -0.00115151 -0.00105331 -0.000840923 -0.00185973 -0.00361086 0.00135572
internal_weight=0 12486 10289 6510 761 19923 6769 3779 560 13154 6390 5749 12968 6870 3219 2748 6098 5179 3642 2197 1079 5326 2055 5052 4481 4387 3990 1375 655 4551
internal_count=32409 12486 10289 6510 761 19923 6769 3779 560 13154 6390 5749 12968 6870 3219 2748 6098 5179 3642 2197 1079 5326 2055 5052 4481 4387 3990 1375 655 4551
is_linear=0
shrinkage=0.1


Tree=28
num_leaves=31
num_cat=0
split_feature=1 69 78 25 1 40 65 11 44 91 46 65 42 72 76 6 40 6 65 5 4 43 74 69 69 40 41 3 1 4
split_gain=3.52622 1.54138 1.6459 1.37725 0.745602 0.630829 0.580763 0.564014 0.546891 0.602726 0.398606 0.392296 0.474384 0.356422 0.351471 0.292815 0.271599 0.336703 0.253825 0.277168 0.241299 0.220044 0.214014 0.210871 0.213248 0.200943 0.243526 0.212737 0.199283 0.198293
threshold=36.000000000000007 88.000000000000014 6.5000000000000009 1.0000000180025095e-35 271098.50000000006 15.500000000000002 1.0000000180025095e-35 1.0000000180025095e-35 30000.000000000004 3158.5000000000005 0.60800030193236732 1042.0000000000002 0.00097506332605672716 1.0000000180025095e-35 0.017754097179485027 0.13362619749791674 403.50000000000006 0.012299331422790884 1.5000000000000002 0.0013745932705161777 0.10612750196928335 1.0000000180025095e-35 35.491210937500007 24.500000000000004 1.5000000000000002 8090.0000000000009 21.962890625000011 0.77995741082584236 40485.000000000007 0.59444020697534194
decision_type=2 2 2 2 2 2 2 2 2 2 2 2 2 2 2 2 2 2 2 2 2 2 2 2 2 2 2 2 2 2
left_child=1 2 3 5 10 6 7 13 9 11 16 12 15 21 -3 22 17 18 19 20 -2 23 29 24 -1 26 27 -18 -12 -6
right_child=4 14 -4 -5 8 -7 -8 -9 -10 -11 28 -13 -14 -15 -16 -17 25 -19 -20 -21 -22 -23 -24 -25 -26 -27 -28 -29 -30 -31
leaf_value=-0.026907719772134089 0.023081393380564211 0.0019997340252283281 0.030031613051884423 0.011292888345270669 0.054111184401138962 -0.00056391535451059125 -9.0560529212879723e-05 -0.035533391890983347 -0.0028680169996700756 -0.01289719563212266 -0.045969018409458329 -0.0027944919916659929 0.0018504921316221613 -0.10527062288481073 -0.019543387227484745 0.004343843512233647 0.0025309227125323019 -0.015048294208042635 -0.0083728792090862932 0.002409327120081173 -0.0069362638500763303 0.0065856747792372161 -0.021785838445383024 -0.005209314249100672 -0.083779672318037873 -0.00010671274359346228 -0.023145401983751413 -0.010001074635855291 -0.0026068830070489213 0.0037424213350952585
leaf_weight=3299 1196 2301 1290 698 4104 403 317 553 2554 667 586 1249 1862 246 257 641 742 760 659 2935 210 109 116 221 312 1919 574 906 374 349
leaf_count=3299 1196 2301 1290 698 4104 403 317 553 2554 667 586 1249 1862 246 257 641 742 760 659 2935 210 109 116 221 312 1919 574 906 374 349
internal_value=0 -0.00200474 -0.00273211 -0.0034125 0.000253159 -0.00394721 -0.00425064 -0.00452778 0.000812781 0.00117972 -0.000341552 0.00141156 0.00170012 -0.00413135 0.000113108 0.00218975 -0.000152913 0.000291172 0.000589253 0.00086686 0.00202134 -0.00390084 0.00247055 -0.00402686 -0.00421038 -0.000770621 -0.00141799 -0.000800144 -0.0022871 0.00258101
internal_weight=0 10006 7448 6158 22403 5460 5057 4740 11542 8988 10861 8321 7072 4187 2558 5210 9901 5760 5000 4341 1406 3941 4569 3832 3611 4141 2222 1648 960 4453
internal_count=32409 10006 7448 6158 22403 5460 5057 4740 11542 8988 10861 8321 7072 4187 2558 5210 9901 5760 5000 4341 1406 3941 4569 3832 3611 4141 2222 1648 960 4453
is_linear=0
shrinkage=0.1


Tree=29
num_leaves=31
num_cat=0
split_feature=1 69 78 25 46 1 40 65 11 90 72 76 65 41 4 40 65 6 5 42 1 46 40 109 43 69 4 73 45 40
split_gain=3.46619 1.47268 1.60608 1.32454 0.648263 0.649213 0.6206 0.57142 0.577513 0.450723 0.364267 0.304109 0.290544 0.315572 0.265526 0.321817 0.303978 0.271087 0.274325 0.2578 0.247382 0.251913 0.229767 0.219219 0.215799 0.213813 0.210496 0.212325 0.201013 0.187504
threshold=36.000000000000007 88.000000000000014 6.5000000000000009 1.0000000180025095e-35 0.60800030193236732 566558.50000000012 15.500000000000002 1.0000000180025095e-35 1.0000000180025095e-35 1.0000000180025095e-35 1.0000000180025095e-35 0.017754097179485027 1740.0000000000002 14.000000000000002 0.012046864261696716 72.500000000000014 1.5000000000000002 0.072702794649496347 0.010050000000000002 0.0087672799059444178 13347.500000000002 47.229672989832586 51.500000000000007 1.0599306341674899 1.0000000180025095e-35 24.500000000000004 0.26292237043164152 99.500000000000014 0.36006697474309152 8090.0000000000009
decision_type=2 2 2 2 2 2 2 2 2 2 2 2 2 2 2 2 2 2 2 2 2 2 2 2 2 2 2 2 2 2
left_child=1 2 3 6 5 14 7 8 10 12 24 -3 13 26 15 16 17 18 -2 -15 22 -22 -6 29 25 -1 27 28 -7 -17
right_child=4 11 -4 -5 20 9 -8 -9 -10 -11 -12 -13 -14 19 -16 23 -18 -19 -20 -21 21 -23 -24 -25 -26 -27 -28 -29 -30 -31
leaf_value=-0.026014337779051468 0.022985480657135682 0.0017997606227055487 0.027028451746695839 0.010163599510743637 -0.017334878118965592 0.070348331197949684 -0.00050752381905958541 -8.150447629162727e-05 -0.031980052701885066 -0.011199766604134709 -0.094743560596329601 -0.017589048504736127 -0.0018121500528522462 0.025718202071390195 -0.011248515629425172 -0.0058256292714681029 -0.0074203290077228708 -0.0090385588633271393 0.0058073548886270034 -0.0046978345598784445 -0.0046426423382211366 -0.3054101924676445 -0.065781554793293756 -0.018007514417775639 0.0059271073013135835 -0.0046883828241906407 -0.0023244809572059212 -0.014567628037092106 0.021340794619642979 0.00098593788538892113
leaf_weight=3611 1251 2301 1290 698 188 2346 403 317 553 639 246 257 1084 1185 960 2839 927 601 2509 732 1956 77 195 142 109 221 331 170 1635 2636
leaf_count=3611 1251 2301 1290 698 188 2346 403 317 553 639 246 257 1084 1185 960 2839 927 601 2509 732 1956 77 195 142 109 221 331 170 1635 2636
internal_value=0 -0.00200875 -0.00271973 -0.00339183 0.000229845 0.000416869 -0.00391621 -0.00421718 -0.00449207 0.00110572 -0.00409093 6.13622e-05 0.0013234 0.00157987 -5.46695e-05 8.56901e-05 0.000645574 0.000995135 0.00131035 0.000506082 -0.00131736 -0.000878156 -0.0036487 -0.0004414 -0.00385789 -0.00398269 0.00203914 0.00223266 0.00238045 -0.000340791
internal_weight=0 10006 7448 6158 22403 19987 5460 5057 4740 8122 4187 2558 7483 6399 11865 10905 5288 4361 3760 1917 2416 2033 383 5617 3941 3832 4482 4151 3981 5475
internal_count=32409 10006 7448 6158 22403 19987 5460 5057 4740 8122 4187 2558 7483 6399 11865 10905 5288 4361 3760 1917 2416 2033 383 5617 3941 3832 4482 4151 3981 5475
is_linear=0
shrinkage=0.1


Tree=30
num_leaves=31
num_cat=0
split_feature=1 69 78 25 40 65 1 11 44 92 41 46 72 76 8 42 67 75 65 66 72 43 4 90 45 46 69 96 70 7
split_gain=3.40996 1.46514 1.61056 1.29674 0.651927 0.594428 0.561578 0.545459 0.443415 0.399762 0.355337 0.365265 0.317839 0.312067 0.29506 0.319188 0.421658 0.25893 0.240748 0.238389 0.230217 0.227084 0.198482 0.235253 0.224153 0.189959 0.187747 0.182814 0.177865 0.174336
threshold=36.000000000000007 39.500000000000007 7.5000000000000009 1.0000000180025095e-35 15.500000000000002 1.0000000180025095e-35 79994.000000000015 1.0000000180025095e-35 30000.000000000004 28.004394531249996 10.000000000000002 0.5351117033005045 1.0000000180025095e-35 0.017754097179485027 0.058777307594793653 0.0031943284527944926 0.17337861567786519 0.5980516605166053 506.50000000000006 30.963378906250018 1.0000000180025095e-35 1.0000000180025095e-35 0.0025171670978429402 1.0000000180025095e-35 0.40555700583853382 91.313184654170726 2113.5000000000005 20.155273437500011 42.304687500000021 0.14063090530391778
decision_type=2 2 2 2 2 2 2 2 2 2 2 2 2 2 2 2 2 2 2 2 2 2 2 2 2 2 2 2 2 2
left_child=1 2 3 4 5 7 10 12 9 14 18 -12 21 28 15 16 17 22 20 -18 29 -1 23 24 -8 -10 -15 -5 -3 -2
right_child=6 13 -4 27 -6 -7 8 -9 25 -11 11 -13 -14 26 -16 -17 19 -19 -20 -21 -22 -23 -24 -25 -26 -27 -28 -29 -30 -31
leaf_value=-0.023187749183084885 0.0044193110771590938 0.0030351081797045155 0.025239773117331412 0.038210930033254445 -0.0004567714371535914 -7.3354028662464549e-05 0.059176707832299516 -0.028782047431696614 -0.0028703920619161495 -0.017816375470037827 -0.0062545987819182976 -0.069744903558682833 -0.091540566841384147 -0.022120075761258386 -0.0090043214849881547 0.00074449382775974024 0.0079505770672934524 -0.030077895955807676 -0.015035298717900148 -0.013022668604820355 -0.062583817844245715 0.0053343965711821545 0.003220376214541432 -0.0021720786279445293 0.021885578298600807 -0.31353969221945949 -0.0047108642615722122 -0.0071816594313961705 -0.0063786482163045834 -0.0063599188298770317
leaf_weight=3703 3659 2101 1281 305 403 317 2855 553 2859 316 3012 218 215 150 814 2781 1259 138 313 555 109 109 722 364 1821 39 138 393 338 569
leaf_count=3703 3659 2101 1281 305 403 317 2855 553 2859 316 3012 218 215 150 814 2781 1259 138 313 555 109 109 722 364 1821 39 138 393 338 569
internal_value=0 -0.00201469 -0.00275534 -0.00344277 -0.00397636 -0.00429453 0.000205672 -0.00458438 0.000574469 0.000850355 -0.000474028 -0.00127974 -0.00417997 -3.7712e-05 0.00094838 0.00109063 0.00142176 0.00183171 8.5642e-05 8.83976e-05 0.000278942 -0.00396899 0.00193423 0.00215637 0.00234699 -0.000532218 -0.0031508 0.000608901 0.000329885 0.000395924
internal_weight=0 10006 7279 5998 5300 4897 22403 4580 14523 11625 7880 3230 4027 2727 11309 10495 7714 5900 4650 1814 4337 3812 5762 5040 4676 2898 288 698 2439 4228
internal_count=32409 10006 7279 5998 5300 4897 22403 4580 14523 11625 7880 3230 4027 2727 11309 10495 7714 5900 4650 1814 4337 3812 5762 5040 4676 2898 288 698 2439 4228
is_linear=0
shrinkage=0.1


Tree=31
num_leaves=31
num_cat=0
split_feature=1 69 78 25 40 65 11 1 46 93 74 67 76 40 7 65 40 5 45 1 44 4 41 66 73 43 69 3 42 74
split_gain=3.29982 1.43892 1.54169 1.20816 0.651055 0.578418 0.568365 0.560138 0.388936 0.34524 0.315786 0.308745 0.293197 0.26098 0.279972 0.328359 0.243977 0.243228 0.31279 0.210398 0.208443 0.207844 0.197555 0.196937 0.191868 0.189407 0.185304 0.176581 0.174698 0.172114
threshold=36.000000000000007 39.500000000000007 6.5000000000000009 1.0000000180025095e-35 14.500000000000002 1.0000000180025095e-35 1.0000000180025095e-35 1059596.0000000002 0.8715359235280199 0.84572798583333342 1.0000000180025095e-35 0.34481840240752598 0.037339852591907058 389.00000000000006 0.086425309952562257 1.5000000000000002 1415840.0000000002 0.0019452473632962286 0.00020087454708767741 4097.0000000000009 532239.00000000012 0.14802754123667669 33.962890625000021 20.174587673611118 173765.50000000003 1.0000000180025095e-35 4643.0000000000009 0.57257282417372946 0.70766008512464829 14.000000000000002
decision_type=2 2 2 2 2 2 2 2 2 2 2 2 2 2 2 2 2 2 2 2 2 2 2 2 2 2 2 2 2 2
left_child=1 2 3 4 5 6 10 8 13 11 25 16 -3 14 15 17 20 18 -2 22 21 29 27 -13 -5 -1 -14 -15 -19 -9
right_child=7 12 -4 24 -6 -7 -8 9 -10 -11 -12 23 26 19 -16 -17 -18 28 -20 -21 -22 -23 -24 -25 -26 -27 -28 -29 -30 -31
leaf_value=-0.02093801259724213 0.031108339384208608 0.00116534199045919 0.021801629260293255 0.032958056869996359 -0.00084498391193328366 -6.6018625796182564e-05 -0.025903842688526881 0.036454372213890099 -0.012849280133238494 -0.021213646367416319 -0.082547555919675733 0.013448825574931079 -0.018843163442501521 0.0059843257549502486 -0.0058190280402389055 -0.0064051331442918531 -0.028478261604927724 0.0055159138126160915 0.0025604161806079165 -0.0006621640823968989 -0.0064404127250295325 -0.005149191617412896 -0.03615798054444426 -0.013441845186134317 -0.014377252813821073 0.001782538074592921 -0.0014500701828175978 -0.010226708318085543 -0.010521009779299996 -0.02027538765815038
leaf_weight=3671 979 2457 1290 410 429 317 553 4227 1394 240 213 694 157 230 1705 1261 112 3590 614 4720 246 383 142 694 288 108 113 810 189 173
leaf_count=3671 979 2457 1290 410 429 317 553 4227 1394 240 213 694 157 230 1705 1261 112 3590 614 4720 246 383 142 694 288 108 113 810 189 173
